0.732109 0.360274 -0.172703 -6.26079 -0.00866529 0.0838499 0.0218391 -0.722039 -0.36619 -0.548564 -0.933 0.197759 0.0318751 -2.09172 -5.19252 -0.115329 0.556161 0.076723 0.0480177 0.115913 -0.434172 -0.580149 -0.329718 -0.024 -0.033075 0.000800392 2.28609 5.84356 -0.265813 0.201576 0.00438936 0.0626809 0.453372 0.505959 -0.192908 -0.15541 0.012 0.048376 -0.161324 0.951399 -0.041339 -0.0394795 0.0468175 -0.08422 0.0679376 -0.443341 2.60553 -0.275354 0.468497 -0.683 -0.901439 0.090079 0.0264842 -0.00171353 0.0151796 -0.0604342 -0.0340812 0.0057055 0.0641669 -0.139194 0.093272 3.7835 0.823 -0.0336936 0.256752 0.107635 0.0860416 1.63393 3.47607 -0.228466 0.0719402 -0.0857779 -0.632835 -0.0843994 -0.132189 0.976 -0.353137 -0.307885 -1.95379 -0.159779 0.0838134 -0.105192 -0.0137238 -0.0345163 0.00457414 -0.279634 -0.0541181 -0.148928 -0.289 -0.512564 0.925482 0.0804991 -0.114894 0.0821908 0.185179 0.00282348 0.185948 0.127428 -0.719778 -0.110115 0.745053 0.817 0.561612 -1.724 -0.0585637 0.0764548 0.423753 -0.271284 -0.000782429 0.00308781 -0.0342115 2.44835 -0.0657706 -0.49161 -0.221 -0.326281 -0.441531 -0.0283242 0.195388 0.359547 -0.617673 5.12083 -0.279615 0.0774355 -0.154481 -0.0484807 -0.765963 -0.111 -0.617221 0.133803 -1.02005 -3.00213 -0.0354901 0.578076 -0.119235 -0.0283222 0.10005 0.0780516 0.0569915 -0.00572781 0.844 -0.463744 -0.0427848 -0.279112 -0.0911772 -0.376292 -1.92183 -0.0247509 -0.00376215 0.117243 -1.6446 0.587019 0.996401 0.274 0.0895831 -0.66785 -0.0207768 -0.00790102 -0.257822 -0.192213 -1.3665 -5.10031 -0.0438054 0.0219534 0.0929781 0.0185674 -0.865 -0.236411 -1.07651 1.28895 0.138585 0.0772589 -0.0253276 0.0245028 0.0347893 0.0830377 -0.956421 2.57036 3.77739 0.509 0.123881 -0.345159 0.546613 0.39782 -0.285619 0.390847 -0.0885085 -0.0206154 -3.89633 -1.56085 -0.204794 -0.179762 -0.895 -0.651632 0.0813026 -0.261363 0.164275 -0.330965 0.0960956 0.0104221 -0.0833 -0.220624 0.609782 0.169337 0.256704 -0.433 1.84303 0.926629 1.03032 1.29096 0.036112 -0.0781575 -0.0104136 -0.0437843 -0.0680665 -5.94964 0.0327251 -0.10899 0.734 -0.218293 -0.630036 -2.46796 -3.30188 0.141085 -0.0247401 -0.019524 0.0259176 -0.00481151 0.0167489 0.321606 0.292459 0.928 -0.0454211 -0.411109 1.51532 0.5265 0.225072 -0.306221 -0.163837 -0.122453 3.43619 -1.00557 0.0622067 -0.272739 -0.648 0.23421 0.0937181 0.326047 0.249769 0.769845 1.1415 -0.0913102 -0.307847 0.0468911 -0.327146 0.0330944 0.222578 -0.706 -0.951256 2.55683 -0.040673 -0.0228189 0.195496 -0.200329 -0.121112 -0.00598483 0.057614 -0.377706 -4.14272 -3.98965 -0.911 -0.679193 -0.358321 0.0872193 -0.0112689 0.106407 -0.168743 -0.0210993 -0.0868364 3.40645 -0.824783 -0.0763433 -3.8846 -0.722 0.289751 -0.204165 0.121619 0.0813288 0.0592486 -0.28993 -0.138826 -0.157806 -0.157386 0.399631 1.73017 -3.26539 -0.78 -0.274267 0.174253 6.89155 0.118536 -0.00977545 0.090431 0.0651398 0.00645636 0.00352497 0.0737744 -0.124039 -0.743032 0.059 -0.0386006 0.473667 0.284271 -0.00128574 -0.0372943 -0.0982134 -1.32218 6.04312 -0.0552495 -0.414246 -0.0285931 0.133392 0.361 -0.0558144 0.438722 -0.500907 -0.108769 -2.12769 1.31291 0.359953 0.0590385 0.24316 -2.44841 -0.0529146 -1.02989 0.024 -0.629216 0.149997 