-0.217771 0.0722331 0.363142 -0.197805 -0.118972 -0.0227772 0.823264 -1.4125 -0.632743 -1.72489 -0.804 0.10405 -1.00803 0.119656 -0.10748 0.0367312 0.299409 -0.0375104 0.230641 -0.454278 1.71986 0.615291 -0.390378 0.797 0.568073 0.436705 0.00773054 -0.11668 0.897034 0.475642 0.198028 0.357328 0.732808 0.244604 -0.00943752 0.320064 0.971 1.2752 2.19259 -0.775343 0.77418 -1.34378 1.5864 0.729155 -1.97615 0.254904 1.13976 0.584249 0.0921151 0.35 2.04973 -1.20539 0.884152 0.365359 -0.657057 0.37315 -0.845196 0.496152 0.571245 -1.23852 0.527338 -0.615201 -0.653 -1.52253 1.01717 0.0712244 0.21052 -0.0975257 -0.266579 -0.0540549 -0.142827 0.834594 0.765214 -0.758466 1.3037 0.891 -0.290824 -0.00478898 -0.0815827 -0.244922 0.0178139 -0.0120286 -0.138272 0.0186173 0.602552 0.174293 -2.77113 -5.33088 0.944 -0.133906 0.398226 0.143447 -0.0456242 -0.214371 -0.0787108 -0.15887 -0.229133 -0.538863 -0.566017 0.939559 1.46382 -0.95 0.431177 -0.203894 -1.52908 -0.148817 0.192236 -0.459522 0.0218408 -0.159036 -0.397475 1.20137 1.88579 0.0276044 -0.147 0.760045 0.570836 0.217554 0.0896905 0.00500308 -0.0694831 0.118666 -0.0787315 -0.451583 0.236183 5.12747 0.191772 -0.979 0.979858 -0.469404 0.250173 -0.00600383 -0.0448239 0.307713 0.254203 0.0541581 -1.52608 -1.46301 -0.672649 0.857935 0.103 -0.552989 0.27335 0.56494 0.48393 -5.40447 1.0882 -0.0866153 0.598394 -0.0238741 -0.592369 -0.662252 0.138323 -0.055 0.325203 -0.0252571 0.322695 0.228674 1.89315 2.12711 -0.649824 -3.29285 0.138338 0.163605 0.311831 0.00154031 0.13 -0.295129 -0.685324 -0.207714 -2.33378 0.182569 -0.154107 -0.159995 0.184591 -0.159776 0.238316 -0.0820114 -0.19147 0.437 -0.100833 0.212357 7.80844 0.277565 -0.102635 0.152575 0.130912 -0.114808 -0.253849 0.680158 -0.410452 -0.324047 -0.765 0.0377485 0.628409 0.0762746 0.183398 -0.471087 -4.86389 -0.0227818 0.111211 0.144971 0.0599593 0.180211 -0.0655498 0 0.263045 -0.676366 4.84542 -4.0975 -0.068165 -0.143078 -0.0552512 -0.0252472 0.109487 -1.4425 0.486902 0.436622 0.87 0.0087339 -0.330941 1.32903 -1.70704 1.44717 -1.63435 0.372797 -1.07755 0.190904 -1.21177 -0.700235 -0.205907 -0.272 -1.93869 0.337307 -0.422621 0.12553 -0.119989 -0.0225157 0.259716 -0.293018 0.933456 0.617075 -0.948932 4.42189 0.973 0.323294 0.311524 -0.516027 -1.54853 -0.302179 0.485329 -0.753017 0.496153 -0.632811 -0.978042 -2.04169 0.566429 0.909 -0.546524 0.541031 0.601891 0.00301664 -0.205556 -0.393618 -0.275804 0.205984 3.48275 1.67211 -0.190893 -0.0405548 -0.306 0.785233 -0.745612 0.345722 -0.37088 -2.05483 -2.60822 -0.653575 -2.5531 -0.00367134 -0.377147 0.121815 -0.254385 -0.268 0.527322 -0.1205 -1.15532 8.44436 0.430608 -0.795519 -0.0862479 -0.141667 -0.458329 0.208653 0.195109 0.0328889 0.181 0.106858 -0.585664 -0.231545 -0.14122 0.314458 -0.202128 0.186441 2.80472 -0.147293 0.249114 -0.179358 -0.355899 -0.356 0.617087 -0.591007 -0.158198 -0.19876 0.499756 -0.713905 4.86245 3.17385 0.0107788 -0.0676813 -0.559874 0.0949541 -0.812 -0.0348951 -0.0809097 1.01017 4.54044 0.235822 -0.122561 -0.0464563 -0.0353476 0.268954 -0.222638 -0.227879 -0.235415 0.118 0.225411 0.680969 