1.05069 -0.497932 -0.0280745 -0.951826 -0.0177585 -0.749313 0.0135491 -2.50086 -0.286073 -1.96685 -0.606845 1.4957 0.00263202 0.328542 0.400839 -1.35291 0.221877 -0.324043 0.0808948 0.937245 -1.32525 0.481597 -0.385568 0.391973 -1.54498 -0.443008 0.587913 -0.588572 0.10149 0.20053 0.917528 0.786964 -0.22534 -1.12313 -1.05057 0.200664 -0.030395 -0.451426 0.749748 0.49128 0.280995 0.0713246 0.8165 -0.257271 0.372287 -0.0480511 0.0333357 0.910781 0.680649 1.08432 -0.711232 0.783807 2.38269 1.17123 -0.690841 1.11731 -1.79689 0.225145 0.356203 1.80801 1.13628 0.00585805 0.216666 -0.792254 -1.22978 -2.57505 0.485452 0.764949 0.703795 -0.186426 -0.637953 1.65143 -0.460173 0.505856 0.693725 1.87977 1.42936 0.165536 0.990184 1.74933 0.201727 -0.128781 0.174923 0.581246 0.699434 0.906126 -0.160897 -0.635764 2.06521 0.674692 -0.457323 0.114591 -2.20908 -2.37917 -0.706124 -0.999105 0.105287 -0.617579 0.03638 0.60611 1.43629 -0.673028 0.218262 -1.31189 1.37893 0.352904 -0.191933 -0.900659 -0.66144 -0.658244 -1.91873 0.788862 -1.27943 -0.720761 -0.0708035 -0.948366 -1.58931 -1.09734 2.66198 -0.197091 2.41542 0.0682995 -1.02614 -1.38264 -0.125274 -1.76869 1.74364 -0.613985 -2.08155 1.67655 -0.0659559 -0.446819 -1.04307 -1.60002 0.0935398 -0.77785 -0.449213 -1.32559 0.360565 -0.154071 0.979025 0.122085 -3.06316 1.02093 3.03142 -0.0317667 -0.404291 0.518269 -0.910096 1.1095 0.621145 -0.877596 -0.626707 0.267865 -0.907342 1.23101 0.587849 -0.017401 -0.324587 -0.653375 -1.35123 -0.290121 0.319176 0.933367 0.114176 0.765512 0.35953 -0.102318 -0.413215 -1.25799 -0.971115 -0.468482 -0.458656 -0.767556 -0.448243 -1.34014 -0.571763 -0.506684 0.186858 -1.62596 -2.26735 0.585414 0.519136 1.71042 0.0659087 0.623153 -0.165184 -0.349698 -0.0902995 0.585605 0.964364 -0.530843 0.636666 -1.83073 -3.81034 -2.36042 0.429232 0.817065 -0.996362 -1.6178 1.26544 0.236871 1.30676 -1.54349 -2.51067 -2.82303 -1.60754 -0.550213 -2.03993 -0.0990425 -0.624508 -1.45025 0.221833 -0.459036 -2.53644 -2.6705 0.768043 -0.61769 -2.90723 2.1419 0.381622 0.981627 -0.248662 -2.49794 2.28532 -0.221829 -2.66254 -1.2067 -0.0346866 -1.5188 -0.568239 -0.271898 -0.493899 0.303647 -0.358152 1.30082 -1.56527 0.696488 1.31168 0.10773 0.13413 0.290765 0.744636 -0.0505688 0.931431 0.719294 1.67801 -1.54016 -0.279488 -0.422794 -1.45209 -0.150338 -2.77364 0.0254805 -1.51763 1.9133 -0.447835 2.60624 1.0254 -0.912385 -1.04094 0.425444 1.01166 -0.45941 -1.8565 -0.545702 0.373273 1.0654 -1.59624 -1.03524 -0.643743 -3.29883 -0.00653171 0.496874 -1.76416 1.98235 0.312737 0.184033 -0.419035 -0.815173 0.662836 -0.390042 0.697044 -0.627575 -1.0827 -0.394574 0.833227 -1.46277 -0.247862 -0.0465945 -1.54321 -0.263934 -3.75701 1.43443 1.52537 -1.13684 -1.2853 -0.243588 -2.67705 -1.36864 2.46266 -0.728793 -2.08969 0.584767 -1.56065 -0.634849 0.611015 -1.38909 -0.930399 -3.04048 0.908381 -1.80567 1.18003 -0.906356 -0.650427 -0.0303413 -1.04573 -1.31451 -0.808688 1.27032 -1.29791 -1.22058 -0.909345 -0.375517 0.0651558 -1.01651 0.411816 0.695421 1.21699 -0.468127 1.47515 -0.246412 0.257239 -1.21926 1.64892 0.941198 0.116284 -0.746394 1.06114 0.718319 -0.232513 0.925153 -0.295764 -1.52663 1.3512 2.4827 0.17358 -0.472079 -0.0178507 -0.918422 0.466606 -0.543226 -0.143328 -0.91489 -0.130987 -0.0713742 1.6093 0.104162 -0.871282 -2.90677 -0.597433 -1.08998 -0.999848 -0.749356 -3.25994 -2.11091 0.780765 0.265636 0.21863 -1.15438 1.0251 -2.78617 -1.22521 0.629238 -1.48249 -1.39689 0.4964 2.28241 -1.00837 -0.236277 0.968415 -0.923765 -2.2827 -0.115423 -0.488452 0.139393 -1.23233 -0.0032149 -1.4312 0.24956 -1.06953 -2.80824 0.27968 -1.02301 -0.538661 -0.285419 0.270935 -0.517137 -0.528252 -1.86937 -1.65563 0.0843042 0.598485 -1.27693 1.51287 -1.11995 -0.591331 -0.192297 -1.60611 -1.45827 -0.762168 0.254256 -0.65091 1.96226 -1.53575 -0.169632 0.237881 -0.687885 0.740202 0.376059 -0.366927 0.0263531 -2.36488 0.288308 -0.268667 -0.766416 0.676572 0.430649 0.307596 -0.96465 -1.54819 -0.683903 -0.40752 -0.346665 1.34078 -0.81791 -0.171279 0.126174 -2.16494 -2.17654 -0.223195 -0.950322 0.81327 0.618935 -0.220281 -0.839468 -1.1849 0.364405 -0.205145 0.00840083 0.77 -0.573488 -0.922613 -1.67063 0.277032 -4.37301 0.458782 -1.83158 -1.5059 -0.336957 -1.04675 0.153777 0.070911 0.918004 -0.423068 -0.605773 0.825063 -3.82113 1.01833 0.25894 -0.264659 -2.34197 0.137694 0.00937931 -1.22257 -0.651814 0.300553 1.10993 -0.364613 0.550123 -1.69433 -1.16072 1.61071 -0.954226 -1.9836 0.917952 1.17169 0.779528 0.147702 -1.27631 -1.22347 -2.64115 -2.66041 -2.15918 -1.15323 1.67856 0.591762 -0.594764 -0.254482 -0.353631 0.859579 0.56856 0.59171 -0.409702 -0.874618 -0.363353 -0.738514 0.607166 -0.587856 0.636319 -0.764255 -0.628145 -0.586481 -0.966553 -1.61532 -0.0622779 -0.0237585 -1.68898 0.0555823 -0.648453 0.469201 -0.451432 -2.1706 0.237477 1.99148 0.108319 -0.983015 -1.6133 0.385447 -1.10907 0.909922 -1.35069 -0.894529 -0.952318 0.00849319 -0.00360836 -1.28146 -0.249478 1.68793 1.87446 0.00926729 0.880161 -1.53697 -1.47866 1.71375 -0.968742 0.133704 1.1903 -0.341554 -0.899638 0.98779 1.34519 0.743735 2.22743 1.46945 -0.955857 1.52491 0.632809 -2.24496 0.117718 0.708796 -0.533961 -0.577098 0.23406 1.69631 0.812664 2.57526 -2.26717 -0.571909 -2.69008 -2.7197 0.817276 -0.895906 1.30357 0.206824 0.251157 0.947365 -0.356049 0.664285 -1.88686 -0.0797473 -0.800728 0.455298 0.23428 -0.553767 -0.54096 -0.585377 -1.32161 -0.282283 0.293233 0.0490156 0.219724 -0.958019 -2.66922 -1.34813 -0.8873 -1.10188 1.62419 -0.111941 0.909127 0.0962136 -0.573875 -0.136453 -0.814717 0.109087 0.0612408 -1.29165 0.374969 -0.172882 -1.37482 -1.78956 -0.327554 -3.52315 -1.12485 1.67694 -1.07962 0.406284 1.46503 -0.11213 1.58271 -1.70349 1.62633 -1.31486 0.625042 -1.39539 -0.563695 -0.3432 0.0209296 0.526142 -0.238378 -3.19507 -3.43565 -0.755778 -2.49808 0.155789 -0.102236 -2.57236 1.02398 -1.29571 -0.557742 -1.56099 0.291838 0.127313 0.387214 -1.10689 -1.975 -2.28545 -3.48245 0.141056 -1.11435 -0.887815 -1.5426 -1.02614 0.130977 -0.816082 -1.59973 0.0983179 -0.885512 0.120272 1.71964 0.737534 0.565118 -0.184862 -1.97548 -1.40785 0.614993 0.417696 -1.26287 2.00272 -0.397892 2.18988 -0.551316 -0.883438 0.237728 -2.30668 -1.92418 0.106641 -0.91325 0.0518085 -0.466326 0.0150153 1.46109 0.700651 -1.0818 0.352051 0.518637 -0.360828 -0.532986 -0.760297 1.13236 -0.671518 -1.39177 0.669987 -0.809321 -0.0350781 0.347362 1.71181 0.753674 -1.06474 -0.0903425 0.109289 0.168977 -3.26882 -2.75586 0.877748 0.184393 -1.06409 -0.89596 -3.62944 -1.29429 -1.50147 -1.08386 -0.356154 0.466209 -1.59695 -0.408796 0.755335 0.298668 -1.03684 1.56891 -1.95126 0.294461 -2.72054 -2.42367 -0.132048 -2.28273 -1.75481 -0.485829 0.954266 0.60487 -0.303168 -0.44669 0.774036 1.36939 2.43468 2.07907 1.15326 0.807999 1.8881 -0.676423 -1.24162 0.22506 -1.39748 -1.0602 -2.31251 -0.307192 2.04651 0.185641 0.0298906 -1.15689 -2.03047 0.257924 -0.0795237 -2.0085 -0.681649 -0.123641 0.0340537 1.00537 -0.797416 -1.23993 -0.342687 0.556699 -0.782575 -0.717123 1.758 0.0485592 -1.54628 -0.826123 0.456767 0.242971 1.09233 -0.439112 1.08164 -1.077 -0.443286 0.735418 0.628252 -0.201121 0.481777 1.93728 0.29709 -0.0629276 -0.338622 -2.03833 -1.12318 0.44478 -1.23161 -0.021425 -0.82324 -2.74457 -0.347878 0.534187 1.54824 2.37836 -0.121232 0.266677 1.52212 1.23508 -1.5916 0.541662 -1.67456 -0.972626 1.49816 -1.56329 0.301884 -0.044794 0.631518 -1.68 -0.582093 -0.682952 -1.06924 0.190003 -1.87844 0.918954 2.70573 -0.908589 0.670309 0.320628 1.32086 -0.718872 -0.533149 -0.105532 0.724715 -0.765164 1.08806 0.0553981 0.91497 -0.0270515 1.01465 -0.543328 -2.13833 0.573428 -0.342272 0.794066 0.246512 -1.49514 0.404549 -0.800727 -0.17622 -0.704394 -0.438741 -0.483426 -0.795785 -1.09006 -0.799825 1.39837 -2.6212 -1.81076 -0.0971279 -1.79267 -0.0233593 -1.57076 0.0664621 -1.2966 -0.26215 -0.307482 0.558631 -0.132306 1.48937 0.349757 0.429927 -0.164422 -0.925174 1.19096 1.30929 1.86122 -1.07638 2.17934 1.57726 -0.85177 -0.76635 -0.643687 -0.585525 -0.221843 -0.780607 -0.294923 1.25671 -0.61432 0.182257 -1.9302 -1.8798 -0.283109 -1.46791 -1.19452 -1.24231 -0.692073 -0.528238 0.254633 0.281185 -0.362227 0.0253224 -1.79364 -0.775185 -1.08807 0.629871 1.8425 2.05007 1.62824 1.36671 -2.23338 -1.76748 -0.54982 -2.14669 -1.45443 -1.05706 3.12293 0.378462 1.06754 0.998491 -0.577428 -0.288735 -0.438101 -0.620715 -0.685412 0.039256 -0.0851967 1.45912 1.41209 -2.37161 0.0813098 -0.552642 -3.42872 -0.972332 -1.38399 -1.51483 -0.625834 -1.18968 -1.98784 0.61502 -1.85236 -2.07377 -1.01596 -1.75809 -1.08446 -0.887148 0.6234 -0.610896 -0.136254 -1.1305 0.147749 0.336436 0.51264 -1.5184 -1.33197 0.72138 0.511125 -0.662938 -0.702049 -0.57706 0.794967 -1.17267 0.207967 1.14656 -0.933802 -2.04822 -0.0953658 -1.55717 -0.933555 -1.1885 -0.402016 -0.339437 -1.62706 0.80036 -0.178177 -0.222889 -0.748463 0.862338 0.0418084 -0.277498 -0.11879 0.39044 1.72628 1.31713 0.534991 1.9436 -1.02929 0.686085 -0.608282 -2.34523 -0.0823398 -0.761881 -0.135383 -0.276516 2.13383 -3.20393 1.63319 0.65155 -2.53028 -0.752562 0.207497 1.01868 0.380633 -2.01311 1.74991 -0.515891 0.437284 2.59099 -0.279126 0.396781 1.4348 1.25948 0.585711 -2.41962 -0.535372 -0.184825 -1.26388 1.79225 1.48044 -0.608459 -1.43658 0.28978 -0.547657 0.747716 0.32885 0.865621 0.539252 -0.615415 0.48048 0.902434 0.393692 -0.426713 0.424291 -0.368497 0.254278 -0.65448 -0.822659 0.379679 -1.68874 -0.664819 2.86279 0.167003 -1.6009 1.43195 0.663455 0.699964 0.70167 -1.39243 2.80939 0.909145 -1.61524 0.694317 0.885086 0.230902 0.388727 0.334235 -0.556256 1.34537 2.65352 -0.617626 -0.343091 0.935775 -0.35776 -0.533285 0.395365 2.11425 0.861985 -2.54837 0.440766 1.54713 0.0766393 -0.524007 0.880779 -1.35362 -1.3811 0.875423 -2.56195 1.73106 0.0439826 1.10507 -0.302939 -1.11396 -0.507229 0.0399912 1.45862 -1.43708 -0.335213 1.51812 1.21832 -0.918723 -2.05075 1.1185 0.536487 0.577731 -1.6075 -2.24108 -0.695795 -2.29203 -1.4414 1.01377 -0.0454041 -1.64446 -0.204934 0.92375 -0.58949 0.39837 -0.469043 -0.27826 0.382908 -0.357718 1.441 -1.01352 -0.161685 0.890985 -0.157108 -0.63469 -0.333835 -0.431793 4.50124 -0.182612 -0.957654 -0.468241 -0.153408 0.848525 -2.05193 0.753682 1.74267 0.815444 1.71069 -0.72684 0.2987 0.0866343 0.971916 0.136149 0.34882 -0.0377404 -0.412897 -1.70172 -1.48687 -0.480618 -0.77437 -1.52357 -1.44378 -0.801518 -0.30342 -1.03928 -0.389029 -1.07714 -0.336816 0.183858 -0.599017 -0.0530708 -1.3682 -0.854975 -0.645985 0.096698 0.621065 0.0222209 -0.723533 -0.012553 -0.748113 -0.196608 -0.885962 0.176696 0.377716 0.648347 -0.46821 -0.303371 0.480047 -0.75583 -0.341418 0.691036 0.180408 1.09926 -0.454141 -0.431934 -0.614379 0.0760639 -0.827207 0.895196 -0.247385 -0.486789 -0.715546 -0.460711 1.18245 -0.870806 -0.324751 1.30741 0.0573475 -0.864829 1.27123 0.167918 1.20949 0.379736 0.21013 -1.75082 -1.18004 -2.36412 -0.389839 0.257312 -0.392738 -3.26963 -1.66492 -0.683488 -1.09934 -0.340968 0.972123 -0.0922152 1.74505 0.364711 -0.826716 -0.005078 0.346295 0.19764 -0.447393 -2.06833 -1.82803 -0.992585 0.336236 -0.588568 -2.13703 1.25553 -1.51827 -0.558739 -0.0684061 -0.547564 0.811273 -0.387797 -0.997947 -1.0675 -1.5558 0.693171 -2.84973 -0.322839 -0.8896 0.161342 -0.296769 1.10836 0.143322 -0.721842 -0.0740988 0.534951 0.713424 0.991025 -0.364236 -0.992914 -2.28719 0.828731 -2.34105 -1.24888 -0.175862 0.460543 0.675934 1.03968 -0.752499 0.143743 -3.88504 -0.474893 0.415622 -3.52568 0.536286 0.910902 -0.0612726 0.103467 0.600043 -1.61058 -0.563073 -0.997737 -1.82227 -1.72025 -1.49646 -1.18717 1.38199 0.269208 -0.192187 0.0688467 0.432276 -3.32946 0.459617 -0.913126 1.33702 1.73452 0.705121 -0.173051 0.697465 1.21876 2.65395 0.686581 0.374611 -1.35423 1.21078 0.960443 2.11345 -0.329139 -0.405316 2.2098 -1.48784 -0.731106 0.0378857 -2.10497 -1.51377 -1.25628 0.254031 1.08339 -0.788062 0.122295 -0.525742 -2.03408 -1.48653 -0.973703 -0.582756 -1.0691 -0.291232 -0.418555 -0.39891 -0.899468 0.412016 1.03758 2.07626 0.358583 1.00456 0.931143 0.357977 -1.13089 -0.394828 -0.0923385 -1.95754 -2.51244 0.204542 -0.28382 -0.55243 0.947388 -0.210475 -0.834948 0.505471 -2.962 -1.04783 0.147817 -1.89909 0.130263 -1.17932 -0.697128 0.465321 -1.08794 0.227305 -1.47401 -2.49536 1.60782 0.790909 -0.544752 2.25737 -3.84471 1.59219 -0.301008 -0.744272 0.28548 -0.0574448 -0.49688 -1.37757 0.116731 -0.406474 -0.417479 1.40183 -0.940613 -2.02452 0.312058 0.787958 1.40497 -0.426496 -1.57797 -0.771225 1.47277 2.43492 0.00687895 -0.218495 1.54127 0.757443 1.47683 -3.61932 -1.20623 0.0835876 -0.261517 0.678109 -0.612981 0.476277 -0.985517 0.113163 2.46047 -3.65805 0.318897 -0.0687771 0.636689 0.403842 -1.37876 0.874046 -2.06316 -1.76399 0.158531 1.29294 -0.0489058 -0.43648 -0.99352 -0.983875 -0.431486 -1.4086 -1.8712 0.0750808 0.184243 0.226511 1.95392 -0.741 -4.28242 -1.15226 -2.18252 -2.25678 -0.317927 -1.70302 -0.652349 -0.910493 -0.250849 1.11611 -3.23991 -0.38813 -1.60425 -0.452339 -2.05631 -0.350123 -0.790202 1.83577 -0.735841 -2.40732 -2.16395 -1.00916 -0.821421 -1.92683 -0.592257 -0.648196 -1.82653 -0.207144 -1.94683 -1.29636 2.98756 -1.76204 -0.40079 0.570453 3.05169 -1.197 -1.67629 2.95521 2.48866 -0.459227 2.63433 -1.45359 -1.30641 0.184654 0.240906 0.159444 -1.37745 1.26477 1.9289 0.0516083 -0.491298 -0.320612 1.01332 -0.603038 0.5078 0.676669 0.876661 -0.941032 -0.129069 -0.589956 -1.10228 -1.85373 -0.873595 1.27146 0.2665 1.24068 -0.425698 -1.31701 -1.76982 1.09361 0.383389 -0.400295 -0.279182 -1.29962 0.514723 -0.222268 -2.20415 -2.89849 -1.26605 -0.602833 -0.792193 -1.79713 -2.13896 -0.444833 -0.506668 0.773123 -1.22069 -1.02487 1.92813 -1.46473 -0.729654 -1.58111 1.38111 -1.24071 -1.02961 -1.66941 0.415767 -2.25568 0.241919 0.615428 -1.59503 -0.776768 -0.230587 -0.824501 -1.5178 -0.629421 -0.962731 -1.46249 -0.361622 -0.72585 -0.929208 -0.802204 0.00433332 -1.29651 -0.618602 0.135728 -0.664767 0.518299 1.34715 1.82266 0.539245 1.83962 -0.510506 -1.79448 -1.01412 -0.628029 -0.715232 -0.795683 -1.13816 -0.926842 -1.21582 -0.975353 1.46942 -1.4924 0.680196 0.671317 -1.23419 0.159415 1.57134 0.636274 -3.19844 -0.094617 1.54332 -2.18208 0.734119 0.823945 -0.819765 -1.12139 -1.86394 1.27393 1.28654 -0.662167 -3.00289 0.592789 0.70059 0.308044 1.65549 -1.65676 0.461243 0.91328 -1.48712 -0.134942 -1.03494 -0.489765 -0.1819 -0.395498 -0.774856 -1.27766 -1.9727 0.485809 -1.42199 -1.64094 0.451002 -0.0547326 -3.95136 -1.90096 -0.0267703 0.154705 -0.650882 -0.0571484 -0.764656 -0.397539 -0.434865 1.71671 -0.647567 0.400342 0.596974 -0.287712 0.679961 0.948747 -0.373677 -0.401739 0.598652 -3.95037 0.17537 1.21661 -1.30308 -1.07526 -1.4978 -0.764841 -0.94304 -0.206313 -1.40496 0.606118 -4.54455 -1.13645 -2.29015 -0.432089 0.655926 -1.3373 -0.496224 -2.10485 0.65659 -0.991978 0.947436 -2.19358 0.44115 0.20275 0.592785 -0.0774135 -0.182129 -0.645977 -1.62586 1.49717 1.40077 0.686828 -1.53808 -1.62372 -1.18503 0.0266042 0.00386372 -0.657713 -1.57766 0.423987 -1.78694 1.1239 -0.0811641 -1.37492 -0.470808 -2.58353 0.734077 0.386756 0.107359 -2.00187 -0.662322 -0.584208 1.16831 0.672153 -0.629129 -0.862625 0.944659 1.94745 -2.08437 -2.50225 1.30204 1.71291 -1.22871 -0.602864 0.959927 1.51432 -0.859825 2.76409 0.131269 -0.0565063 -0.357857 -0.803356 -1.61185 0.683168 -0.499107 0.66818 0.0170951 -1.14659 -1.33289 -1.836 -2.2849 1.52118 -0.843726 0.599301 2.14556 1.62795 0.0314517 -1.44107 -1.88287 1.08001 0.763904 -0.290919 -2.25424 0.57335 0.475298 -1.5613 1.81531 0.500224 0.38073 0.224433 0.0337563 -1.15737 -2.03982 -1.84876 0.107692 -0.21042 0.779124 -0.752933 0.478766 -0.3838 -0.126271 -0.00429997 -0.645031 1.24862 0.184204 0.78609 1.35503 -0.229523 -1.52933 -1.94321 -1.45262 -0.671919 0.547176 0.623402 -0.168785 1.03034 -0.148584 -0.284216 -0.709222 -1.16937 -0.630876 -0.953617 -1.12956 -0.878227 -0.546483 1.37468 -0.38994 -0.156407 -1.6291 1.27505 -1.0259 -0.286228 -1.14733 0.327412 -1.02812 -1.86695 1.53647 -1.10016 -1.31583 -1.25732 0.590389 -0.360549 0.0360224 0.983023 -0.859561 -1.31351 -0.00463802 -3.05388 -0.457421 -0.74836 -1.1785 -1.35803 0.617604 -1.36834 -1.66441 -0.370977 0.313004 0.698306 -0.0189978 -2.57616 -1.52734 1.69399 -0.628037 -1.09078 0.484053 -0.543344 0.242698 -0.0830262 0.596491 -1.05581 0.314522 -1.42439 -0.526949 1.08992 -0.671606 -0.745956 0.852943 1.20143 -1.50994 -0.936065 -1.09881 0.0825411 -0.983506 -1.10364 0.531529 1.57501 -2.86221 -1.00116 -1.37732 -1.48673 1.06804 1.54287 -0.310919 -2.0023 -0.113943 0.468194 0.390575 1.09788 2.08007 -2.13497 2.55894 -1.05652 -3.11833 -1.49836 1.56002 -0.983655 -2.11236 -0.650384 0.562519 0.88652 -0.686827 -3.41112 -2.78581 -0.953188 -2.36501 -1.48416 0.896168 1.3111 -2.383 -0.27371 -0.875926 0.189649 2.13454 1.34986 -2.13012 4.77074 1.31308 -1.01489 2.48326 -2.71136 -1.36999 2.41151 -0.995988 1.43933 1.7011 0.603617 1.104 1.25779 1.581 0.424885 -0.935576 -1.54711 -0.67154 0.00491544 -0.794562 0.178244 -1.49569 -0.652718 -0.643829 1.1849 -1.61948 0.741324 -0.1797 0.157673 0.969826 0.516751 -0.0345087 0.414874 0.321993 -0.454308 -0.569301 0.469626 -1.82325 0.14989 -1.44112 2.32371 -2.8028 -2.28608 -1.73048 0.241054 -0.426713 -0.425065 -0.623431 0.611627 -0.899331 0.829972 -0.366001 0.564955 -0.518732 -0.0916345 0.012918 0.298638 -0.531898 1.25908 0.7835 -0.245869 0.602127 1.14719 0.232415 -0.554794 0.0107954 0.131603 1.71938 0.921161 0.975755 1.45028 0.669538 0.205925 -0.581416 -0.0635378 0.438635 0.296877 -0.236179 -0.782447 0.949409 -1.82937 -1.49951 1.18946 2.10858 -2.0109 0.081795 0.0876837 0.924373 -1.92125 1.76343 -1.53727 1.84751 -1.83412 -0.159821 0.249066 -0.874493 -1.0283 -0.275475 -0.470492 -1.08489 -0.25741 -2.16664 -2.71549 1.44838 -3.28484 -1.0557 -1.19037 0.645163 1.64511 -0.652521 0.343544 2.26037 -0.371279 -0.522776 0.678723 1.28132 0.683887 3.67005 -0.256309 -0.312003 2.90097 0.252091 0.303695 0.894662 0.0936322 0.593184 -0.839403 -0.453252 -0.796891 0.428894 0.732403 0.480342 -0.118725 -0.97593 -0.876481 0.592102 -0.454588 -0.615664 -0.466542 -0.252096 -0.688646 -0.773231 0.290337 -0.8171 0.516603 -0.74475 0.271946 0.711556 -2.07255 0.130168 -0.433178 -0.31554 -0.937314 -0.171607 -1.64911 0.609167 -0.467451 -1.48513 -0.899299 -2.08441 -1.0645 1.00243 0.351862 0.902232 -0.945716 -0.0259771 -0.700379 -0.525495 0.388004 -0.278108 0.445525 -1.22684 -1.4589 0.441507 1.44103 0.587194 -0.127698 -0.34238 0.212442 -0.834795 0.353856 -0.832065 -2.35951 2.10407 0.197355 -2.03814 1.31393 -1.22046 -2.11651 0.225688 0.864412 -1.7372 -0.830202 -2.36864 -0.158636 -0.357838 -0.848844 0.947187 1.30251 0.795908 -0.0531543 -0.104897 -0.308411 0.385334 1.05282 -2.11335 0.727207 -0.265695 -0.474413 -0.256944 0.971701 -0.25785 2.32717 0.00771209 0.162272 1.2996 -1.74395 -2.93336 -0.312392 -0.000360299 -3.28626 -1.19099 -2.95431 -1.94747 0.839379 0.421988 1.78641 -0.678564 -1.50048 0.828457 0.164802 0.663766 -2.1693 0.662274 0.146066 -1.68051 -0.0293932 -0.519626 1.03676 -0.729021 -0.324003 -1.35582 0.9902 -2.53292 -0.392573 -0.390688 0.117751 -0.987689 -0.284437 -0.649861 0.0472138 -3.56432 -1.4274 0.774896 -0.182657 -0.987451 -0.620693 0.300383 -2.26864 -1.46102 -0.301309 -2.08849 0.484486 -0.00590171 0.366316 -0.106131 -0.360083 -1.58121 1.03464 -0.330047 0.636188 -0.156935 -1.23367 0.702993 -0.913148 0.0297384 -0.197707 -0.797712 -1.07794 0.0941129 -0.0415108 0.082399 0.157081 -0.441657 -0.864752 0.781952 -0.61475 -0.783497 1.43844 -1.35579 -1.24574 -2.83463 -0.128556 -0.0618876 0.232327 -0.647668 1.2002 -0.986753 -1.83654 -0.119308 -2.03227 -1.15287 -0.608224 -1.07377 -0.166886 -1.09084 -0.100657 0.219918 0.0236903 -1.06787 -0.103622 -1.45661 -1.1507 -0.000388945 -1.24845 1.41334 2.65394 -0.562926 3.04174 0.86039 1.07897 -1.61176 -0.669982 -1.86457 0.108761 -1.24491 1.06013 -0.450623 -2.65084 0.186672 1.27627 0.0938872 1.16889 -0.0764413 -0.479867 0.158643 -0.430777 -0.631971 -0.0905202 0.00148712 1.19153 1.48902 1.05595 -1.74489 0.671663 0.213972 -1.29464 -2.49502 0.554415 1.67035 1.23154 0.436873 1.14098 1.3358 -1.05364 1.01036 1.04859 -0.0879912 0.607645 -1.49209 -0.134381 -0.541644 -0.701006 -0.777146 -0.717532 0.264547 -0.929888 1.12875 -1.14315 -0.496416 -0.479299 1.08322 -1.16944 -0.745354 -0.595106 1.30714 2.24543 2.93396 0.412707 2.03459 -0.226553 0.78872 0.969052 -0.295212 0.766311 -0.478337 0.12143 0.262364 0.311084 0.278559 0.789087 0.315404 -0.175936 0.0240983 -0.746794 0.389034 0.929496 -0.839492 -0.465329 -0.966532 -0.663226 -0.904658 0.353848 -0.294219 0.959013 -0.270024 0.0284478 -0.567197 1.08683 -0.695166 1.06727 0.166321 0.153211 -0.232731 -0.329287 -0.464161 0.159085 0.223472 -0.298973 0.537551 0.039629 -0.621572 -0.569903 0.32742 0.864933 -0.3537 0.294484 0.0919779 0.486909 -0.202558 1.13887 0.810569 0.197714 -1.26148 -1.05257 0.00442533 0.0318547 1.18586 -0.0139772 -0.432085 0.379657 -0.940414 1.13822 -0.0558653 -0.770711 1.27939 0.727991 0.11306 -1.4568 0.511264 0.203108 0.485367 -0.0723797 -0.290955 0.983555 -1.89899 -0.183028 -0.903099 -1.67269 -0.56071 3.08993 -0.0208419 -0.0385574 0.92901 0.926016 0.0244398 -2.44559 1.3895 -1.27924 -1.22075 -0.988179 -2.19764 0.702359 -1.09134 2.65303 0.364454 -0.583531 -0.00379145 -0.908941 0.136831 -0.284278 -0.623685 -1.99086 -0.476787 -0.33658 0.408002 -1.00257 -0.0848949 0.726173 1.07274 -0.28945 0.0581777 0.232866 0.407704 0.363521 -0.583298 -0.165049 0.54744 -0.729659 -0.0692893 -0.638336 -0.464709 0.0590718 -0.689554 0.753787 0.347066 -0.693161 0.0767936 -0.396151 -0.0363705 -0.711384 -2.33428 -1.98864 0.105284 0.613161 -0.292175 0.0124836 -1.03644 -1.50326 0.62079 0.0677398 -1.8651 -2.72736 -0.0664036 -2.99033 -2.21418 -2.99534 -2.87296 -0.410937 -1.55841 -0.207138 -0.345606 -0.357839 -2.52346 0.419864 0.872487 -0.931885 -1.72623 -0.544279 -0.304727 -0.0316694 -0.490877 -0.0755023 0.134092 -1.45642 -0.937318 -0.778945 -0.374397 0.281993 0.643609 -1.26374 -0.559576 -1.3033 -1.74871 -0.129499 -1.73259 -0.729854 0.968344 -0.183005 -1.26118 -0.211322 -1.12431 1.00247 -0.136943 -0.393733 -0.442148 -1.49967 2.35872 0.434573 0.554572 0.309401 1.41787 1.01043 -1.65763 -0.91481 -0.529475 -0.632066 -1.57371 -0.703406 0.90295 1.0674 -1.26593 1.04584 -0.476154 -1.66906 0.250919 -0.377841 -1.54262 -0.22927 0.713301 1.37246 -0.172843 -0.567481 -0.0234252 -1.79573 -2.94887 -0.717116 -0.60529 -1.65102 0.578975 -0.093953 0.280684 1.16401 0.0873129 -0.0226999 -0.280747 -1.08104 -1.18696 -1.46373 -1.048 -0.21691 0.613877 -0.548835 -2.82615 0.021587 0.304266 -0.250772 -0.1745 -1.29257 0.261929 -0.159151 -0.157865 0.177489 -0.232026 -0.260424 0.178092 0.384214 -0.524662 -1.45691 0.210784 0.967341 -0.539136 1.03741 0.487203 0.875533 0.0195721 -0.50705 -0.395856 1.09716 -1.32378 -0.0354084 -0.518976 -0.814589 -0.960662 -0.649448 0.0497483 -1.06 -0.375612 -0.292505 -0.620031 0.147037 -1.1988 -0.611091 -0.629288 -1.06003 -0.117778 -1.59487 -1.01836 -0.508462 -0.797969 -1.12269 -0.501126 -0.399057 0.399862 -0.0601155 -1.23021 -0.240034 -0.578792 -0.367552 0.108165 -0.271527 -0.797692 -0.420425 -0.971538 -0.451625 -0.0680346 -1.99534 0.925658 0.458932 -0.0454524 -0.873817 -0.746771 -1.034 0.0314225 -0.443864 1.26426 -0.921606 1.09521 -0.245486 1.31856 0.637771 -1.41686 0.233216 1.41081 0.720455 -0.913616 -0.836236 -0.763489 -0.193103 -1.34783 -0.234253 -1.15694 -1.73965 -1.81897 -0.336378 0.498755 0.20467 -0.415322 -0.444556 0.875087 -0.204399 0.767081 0.251473 0.820408 -1.05571 -0.981172 0.136194 1.89764 0.659466 0.0673445 -0.669665 0.157919 -0.22928 -1.7427 0.547026 0.384031 0.669286 -0.732835 -1.37815 0.325546 0.74251 2.79703 0.122636 -2.79412 1.42197 0.273661 -0.387396 0.315422 -0.31249 -2.47768 1.97504 1.44833 1.41481 -0.250303 -0.520451 0.175851 0.868545 0.310774 1.43541 0.859742 1.14552 -1.48148 2.89427 0.968349 -1.73125 -0.374787 -0.621318 -0.74668 -1.56491 -0.583017 0.406195 1.48334 0.899602 2.02966 0.875454 -0.465274 0.826481 -1.19633 -1.48202 2.88291 1.77596 -0.443762 -1.53742 -0.089397 0.596558 0.373312 -0.507595 0.106559 1.19344 0.592924 0.443408 2.31722 -1.43432 -1.82834 0.0853439 1.78179 0.352371 0.687347 1.59461 -2.1067 -0.869185 0.687512 0.0447699 0.648343 0.254919 -0.683958 0.448969 -0.0535598 0.0532847 0.388511 -0.595407 -0.143689 -0.195869 0.582126 -1.86185 -1.19178 -0.552951 0.322561 -0.4899 -0.70387 -0.293127 0.111814 -0.740096 -0.392441 -0.0202088 -1.41942 1.27766 -0.215456 -0.580214 -1.65265 2.17113 -0.163423 -1.63383 