-0.965117 -0.290537 0.114926 1.10501 -1.57949 0.721586 -0.497838 0.96715 -0.682505 -0.265436 -0.640036 -0.126013 -1.26608 0.504589 -0.918268 -0.977484 -0.144105 -0.699978 0.408651 0.3092 1.02928 0.503652 -0.858299 -0.451486 -0.556918 -1.3041 0.95489 -1.39628 1.98134 -1.722 1.10322 -1.19074 -0.745176 1.07735 -0.367688 -2.59374 0.298216 2.50063 1.37632 -0.675788 -1.70523 -0.820557 0.0464826 -1.54302 0.0527366 1.03103 -1.0525 -2.0986 -1.51981 1.84443 0.980493 1.44041 0.423527 0.771743 1.18786 -0.71273 0.684196 -1.09036 0.284611 -0.232827 0.355758 -0.305775 0.52094 1.52756 -1.45827 0.391775 -0.00428124 -0.466923 0.927207 1.52123 -1.08366 -0.188082 0.538632 -0.881766 0.170586 -0.216464 -0.373922 0.131168 0.455687 -0.289001 0.273416 1.16656 -0.582219 0.521917 -1.35577 -0.842543 -0.76351 0.980204 -0.436241 -0.71436 -1.18269 -0.221632 0.885634 -0.0873757 -0.338937 -0.853138 -0.534812 -0.509185 0.497866 -1.02159 -0.717476 -0.253395 0.819537 0.869304 0.191963 -0.582357 -0.440479 1.22148 0.437282 -0.838773 -0.217762 -1.81587 1.10861 0.75526 -0.1926 -0.0779412 1.71347 -1.42313 -0.688386 -0.319173 -0.410959 0.04494 -1.21801 -0.373349 -0.765449 -0.0852896 0.389359 -0.467765 1.08673 0.810886 2.11846 -1.63761 2.69537 -0.32642 0.722452 0.224814 1.72958 -4.16402 0.330703 1.73514 1.10597 -1.20852 -0.073102 -0.891373 -1.34229 -1.18725 -0.271623 -1.38319 -0.418561 -1.21936 1.55164 -0.33605 0.56641 -0.678588 2.33175 2.1874 1.94359 -0.0858724 1.16927 -0.360368 1.82522 -1.08293 -0.866338 -0.211377 0.93857 4.10905 0.257237 1.42215 1.0491 -0.381274 1.2352 0.274666 -2.78373 0.701431 0.552158 1.50525 0.840262 -0.580914 0.994404 0.676279 -0.32172 -0.670097 0.559772 -0.95125 1.37058 -0.0612361 -0.849628 0.430422 0.0463592 1.4015 0.505687 -1.10157 -0.98275 -1.01202 0.0573453 -0.00493533 -0.681124 -0.538119 -1.10433 -0.00263701 -1.1277 -0.1129 0.340342 0.0403621 0.957259 -0.812101 -0.132881 1.68649 -0.889961 -2.61506 -0.312722 0.995599 -0.282145 -0.100746 -0.327421 -3.51249 0.0246606 -0.846445 -0.494083 1.33759 0.422907 3.48384 -3.28832 1.16998 1.60516 -2.16625 0.511242 1.27125 0.145593 -0.159594 -0.0881676 -0.292712 5.43973 0.278309 1.48767 -1.00056 0.124976 3.16621 -2.14621 0.115689 1.35655 1.18186 -4.94084 0.539716 -4.00759 -1.19656 -0.571994 0.323995 -0.00652171 0.037869 -2.84236 -2.17507 -1.58062 1.20242 -2.25939 0.555105 -2.8921 4.44179 -1.54482 -0.921217 1.70924 0.432686 0.0968117 1.76931 -1.07127 0.182111 -0.353663 1.22017 -1.8882 1.786 -2.08178 -0.454289 1.01284 -0.287847 -2.50017 1.1041 0.527094 -2.7008 2.67908 -0.401232 1.02599 0.0963192 -0.835124 -1.36177 -1.42919 3.18146 -1.00112 -0.234249 -1.12195 -0.243932 0.715007 3.78222 4.86925e-005 -0.113169 1.37341 0.179772 0.511017 -1.47833 0.65069 0.422603 -0.430416 -0.297888 -0.525105 3.21289 -1.05655 0.190581 -0.587211 -0.465704 2.1811 -2.43943 0.493436 0.784628 -1.29626 -0.483109 2.61216 1.89171 -1.09895 2.34824 0.614938 0.0334253 0.172766 2.2078 -2.96758 5.92457 1.06046 0.217476 -0.291132 0.018912 1.94018 -1.07788 -2.08671 0.591483 -1.01364 -0.536774 -2.27029 -0.206887 -0.956259 2.41119 -3.71605 -0.224815 -4.19257 0.681075 -1.04525 -1.05681 -0.800286 -2.33595 1.59375 3.1234 0.785516 -1.29943 0.148724 2.831 2.0738 4.53529 -1.56657 0.563622 0.786323 0.399703 -0.154495 0.820008 -5.51581 -0.583218 -1.66994 2.68324 -3.6659 1.8385 -2.45242 -0.969889 -2.13838 0.306357 0.651688 0.0316231 0.693783 0.240416 -0.281888 0.830024 0.130405 -1.88676 -0.000895667 -2.91625 1.79841 0.343355 -1.27222 1.61443 -0.936062 -3.23161 3.15141 -1.08544 -2.75496 0.214402 1.6631 -0.802994 -1.09208 1.34895 -0.709832 0.0778902 -1.58926 -0.733201 -0.090207 -2.45313 1.02968 1.50215 0.154429 0.777248 -0.103608 1.21461 -0.685926 0.35805 0.692508 -0.162506 0.347172 1.37641 -0.219605 1.08664 0.602706 1.60548 0.300078 -0.866302 -3.70305 0.272726 0.816064 -0.210978 -1.12839 -3.12204 -0.306263 0.762391 1.00542 -0.505739 -0.678461 2.79744 -0.910513 0.915408 1.46643 0.341713 1.01796 -1.84914 0.375343 1.63025 -2.80666 0.694321 0.661768 0.584934 2.73027 0.208718 -0.30688 -2.28711 0.641868 0.228701 -0.485634 0.624351 -2.49141 0.370469 -1.02825 0.257929 1.00704 1.25503 -1.29801 2.06733 -0.365894 -1.44511 -1.0452 1.53581 -0.712189 1.95674 -0.572377 -0.402656 0.273013 0.00192876 1.02351 -0.198748 -1.73534 -1.91336 -0.776648 1.78979 0.401209 -2.65483 0.154144 -0.569636 1.00912 -0.646579 0.983052 1.32949 0.858867 -0.0216595 0.208015 -0.381119 1.52548 0.419405 -1.56604 1.10465 -1.31877 -0.674614 0.153487 -0.627636 -0.361757 0.848241 0.302713 -0.933257 -1.06935 0.426988 -1.13643 1.78221 -0.58926 0.0249619 0.0648626 1.19282 -1.32051 0.176444 0.568234 -0.945538 0.616397 -0.278792 -0.23722 -0.242599 1.53645 0.300954 1.56901 -0.590495 -1.99159 -1.71271 1.54347 0.350366 1.02823 -1.22962 -1.09469 -0.673363 0.804777 -0.773269 0.0576004 -0.277925 1.27868 0.0349696 0.260517 0.977772 0.210505 -0.223875 0.777066 -0.349846 -0.761016 0.447141 -1.03337 0.185107 -0.814842 -0.00966084 -0.471926 2.44766 -0.234005 -0.713158 -0.333719 -0.871401 -0.107775 0.351119 0.214253 0.960702 -1.04042 -0.77979 0.234919 0.207652 1.32379 -1.76936 -1.176 -0.52916 -1.13575 0.0664241 0.328997 0.78047 -0.320016 1.45424 0.0579587 0.433171 -0.871385 1.08836 -0.0340714 -0.705863 0.0430492 -0.154115 -0.370195 -1.55453 -0.801715 -1.41677 -0.270766 -0.0178483 0.120639 0.509665 0.182233 0.651756 -0.68265 -1.49501 -0.928916 -2.00512 -0.971462 0.117992 0.545713 0.108789 -1.08046 -0.686672 -0.856893 -0.660254 0.204038 0.619412 -0.871071 0.628293 -0.220731 1.41826 0.0949926 0.684489 -0.983749 -0.238814 1.18585 -1.2091 0.393131 -1.22411 -0.829634 0.779736 0.357823 -0.363015 1.16578 0.443385 -0.414187 -0.40845 -2.64733 -1.17087 -0.529176 2.47785 1.0843 0.851419 -0.98409 1.35663 0.409689 -0.290415 0.610778 -1.09814 -0.838088 1.14093 0.678603 -2.96662 -0.652517 -1.34016 -1.42008 -0.45432 -0.308306 -1.78236 -0.0195129 -0.442999 0.42602 -0.13823 -0.811534 -2.31896 -0.135352 -0.731379 -0.808142 0.25816 0.297097 0.646321 -0.995326 0.82613 -0.76732 -0.426579 0.0340225 -1.24644 -2.01147 0.954827 -0.136346 2.02636 -2.2376 0.453805 -0.353598 -0.504462 0.75168 0.212749 0.313671 -1.95629 0.107842 0.25853 1.42063 -0.862055 -0.24364 0.0609339 -1.2875 1.43237 -0.206221 3.35295 1.78946 -0.578595 -0.0717209 1.34573 -1.86577 0.769821 -0.606807 0.92447 -0.419497 1.04822 -0.438301 -1.41305 -0.245314 -1.90886 0.426294 -0.203763 0.447457 -2.49005 -0.820223 0.169345 -1.19988 -0.109437 1.71512 -0.066291 1.61442 -0.13618 0.110145 1.61042 -0.811872 -1.91927 -1.01816 0.256339 0.0766145 -0.462248 0.368219 -0.112682 -0.713289 -1.6502 -0.80823 2.3483 -0.823758 -1.5464 0.286837 -0.673508 -1.45856 0.534902 -0.410632 -0.985912 0.625572 -2.22746 1.08763 -3.0266 1.23737 -2.08596 3.81822 -0.727923 -1.39415 0.142757 -0.642379 -0.418295 -2.07166 -0.857075 0.0358141 -0.0209669 -1.50768 -0.945937 2.21074 -0.875898 1.08331 1.59672 1.60288 -2.59567 -0.891824 1.0792 1.8983 1.51669 0.131377 0.325703 3.18308 2.09657 0.958787 -0.0993393 -1.77188 -0.0906698 1.96092 0.683082 -0.97491 0.681622 -0.478572 1.52792 -0.756727 -2.6914 0.329359 -2.13895 0.221863 -0.113198 0.568813 0.39883 0.206825 -0.0577679 0.213458 -2.10641 -1.06026 3.35619 -2.56549 -1.88009 -2.27432 -0.723525 0.430281 1.02101 2.07222 -3.58491 -2.38136 -0.493138 -4.0467 0.259511 -0.382404 -0.663039 0.840847 -1.51493 1.106 0.0352251 0.933244 -0.912445 -0.277259 -0.407074 -0.048755 -0.0516463 0.795113 0.549906 -0.600855 0.902266 -1.81037 1.09535 0.368257 0.459793 -1.51404 -0.80651 0.833971 1.07002 0.255989 0.965346 0.301164 2.45735 1.57687 0.434453 0.24556 0.0569261 3.02153 -1.09371 0.239551 -0.00169827 -0.225148 0.395809 0.0553015 -1.60364 1.20564 -1.11307 -0.489005 0.0640137 -0.715104 -1.50274 0.423396 -0.547459 1.29062 1.40984 0.0374195 1.09617 -1.98976 1.00172 0.191188 -1.51706 -1.32162 1.31942 0.152955 -0.30743 0.534683 -0.49596 -0.526785 -1.58581 -0.180761 0.753503 -1.92736 -1.06106 0.94603 0.344278 0.951699 -0.712177 0.365035 1.23908 0.841127 0.0788902 0.894989 -1.28575 0.0178285 -1.41485 -0.0508731 -0.974044 0.0749882 -2.5886 -0.530731 1.58216 0.265524 1.36723 -0.347337 1.46961 -0.190939 0.641796 0.912836 0.391917 -1.8517 -1.17838 -0.449942 0.160501 -0.950339 1.56062 -0.218243 -0.122893 -0.258587 -0.257307 0.142442 -0.721959 0.754878 0.0985768 0.178135 -0.729963 -0.632382 -0.553344 -0.220392 0.902376 0.938972 -1.69916 0.508359 -2.07174 -0.527186 -0.278412 -2.30378 0.927724 -1.41463 0.478237 -0.60142 -1.02044 1.99801 -2.39623 -0.585824 0.306808 2.87922 0.321214 -0.464326 -3.26025 2.25843 2.36159 2.48559 2.02321 -1.44446 0.168671 0.135251 -3.73234 -0.755505 -2.07451 0.97226 0.747293 -0.295842 1.83365 -0.587581 -1.94148 1.29749 -0.270873 -1.61576 -1.03445 -0.0578441 -0.782477 -0.993064 1.59011 0.572259 0.547533 -0.394072 -0.999361 -3.01496 -0.784301 -0.361838 -1.1372 -0.332661 -0.610397 -0.382263 1.31994 -1.22306 -0.790799 1.42587 -1.69909 -0.0466964 -0.268379 -1.0857 -0.724646 1.31909 0.0214533 -1.7628 -2.98147 1.3186 -0.0880151 0.809467 -0.488521 1.93651 -0.331568 0.749952 -4.368 -1.53361 0.490745 -1.47218 -2.52916 1.1046 0.819985 -1.46754 -0.827256 0.898261 0.83462 0.394658 0.106135 1.88584 -0.539584 -0.552911 -0.657551 -0.338503 -0.923033 -0.915031 -1.00906 -0.776273 1.00365 -0.652083 1.47619 -0.646799 0.646995 1.18814 0.219314 4.85772 -2.40801 0.080472 -1.2464 1.75345 0.876811 -0.915443 -0.169 -1.09124 -3.21473 -1.32929 -1.42878 1.25541 0.843732 0.372826 0.0496668 -0.155685 0.194487 -2.50814 0.705912 -2.51991 1.09245 -2.8351 1.00415 0.10804 -4.05015 -1.03125 -0.732067 3.99083 -2.27164 -0.488383 2.9869 1.67475 -0.178821 -0.0605615 0.401495 -0.85085 -0.442765 -0.772519 -0.323211 0.802083 4.00974 -0.526221 0.140668 1.52504 -1.2989 -3.46647 1.25253 0.420629 3.75555 0.0288315 4.80905 -0.928857 -1.12824 0.875139 -1.54472 -1.26564 -0.0566931 2.7577 0.286458 -1.68611 1.41778 -0.624238 -0.558805 0.715085 1.0675 1.8787 -0.674164 -0.0189641 -2.45551 2.96794 1.27321 1.70008 -2.69226 1.3519 0.334279 -0.188729 1.06329 0.823508 3.72509e-006 0.564758 0.68726 -2.14204 -2.90684 1.43936 -0.558752 -0.018006 -0.498404 2.27996 0.289539 -0.833187 -0.414036 -1.67279 0.292369 1.8048 0.829993 -4.63362 0.561592 -0.824831 0.810433 0.499918 -1.29086 0.861796 1.42798 0.368374 0.31665 -1.97123 -0.669049 -0.245027 -1.39035 -0.361469 2.81416 -0.417204 0.644143 -0.868284 0.864281 -1.98956 0.0484786 0.686401 -0.559843 1.82079 2.97943 -2.41366 -0.0378227 0.870893 -1.13139 -0.96952 0.340935 2.33157 -0.231866 -2.5876 -1.17251 -0.915531 -1.35482 -1.32018 0.37019 0.897545 -0.308274 -0.218685 -1.00933 -3.97965 1.7071 -1.10021 -1.64522 -0.173761 1.08137 -0.234473 -0.668713 -0.173011 -0.514609 -0.683133 0.423066 -1.04907 -0.490504 1.88458 -1.01924 -1.47256 3.07401 -2.93688 -1.42065 -0.290537 -2.01763 1.08385 -2.1617 0.996278 1.19016 -0.241994 -0.750543 -0.45305 3.58309 -0.201831 -1.93666 -2.2505 1.61588 -2.13568 1.72073 -1.66524 -2.91814 -0.176554 -0.0390051 -0.234501 -0.538683 0.138883 -0.652128 -0.313297 1.70377 -1.54946 -0.872076 2.92625 -0.145402 1.93551 -0.705043 -1.63191 -0.215572 1.80732 -1.12773 0.746975 1.18741 -0.509092 1.11421 -1.32974 0.336098 -1.57671 1.91815 -0.840509 0.476582 1.50033 1.79834 -0.472128 -0.0691478 1.37496 -0.259631 0.62113 -0.483641 -0.758403 -0.0449603 -0.05221 0.932349 -0.362394 -0.15034 -0.354849 1.46962 0.180805 -0.882797 -2.35884 -0.0990716 -0.933515 0.256235 -0.548614 -1.09077 0.717573 -0.394836 -0.10029 -2.00815 -0.334908 0.0889503 0.542471 -1.44484 0.696821 -1.19923 -0.0734124 0.140525 0.371685 0.847252 -0.00176231 -0.234966 -0.449838 -1.27042 -0.55948 0.565866 0.32053 -1.44488 -1.00827 1.53558 1.16671 -1.33921 1.19586 2.99595 1.27495 0.451921 1.09904 -2.10004 -1.57622 -1.36819 -0.151864 1.78766 1.38275 1.08792 -0.618331 0.279161 -0.320493 -2.11765 0.736598 -1.95634 -0.629455 -0.648886 -1.44347 2.21757 -0.0458596 1.48624 -1.11057 -0.920466 -3.21035 0.192827 -0.613925 2.2898 -1.03466 -0.27968 -1.75975 0.35019 1.61831 -0.000307818 0.904621 -0.975161 0.785324 -1.12154 2.75457 -0.719822 -0.888263 -0.648051 -0.133782 1.78676 -0.306515 0.323132 0.385293 -1.25858 2.06943 0.117289 1.76548 0.465867 0.0605136 0.288361 -1.43515 0.860477 0.325106 0.490975 -0.635239 -1.87367 -0.047519 1.14516 -1.14178 2.44584 0.803426 -1.58975 -0.897332 -1.26623 -1.15535 -0.472744 -0.0884736 -1.24409 -0.870591 -0.886131 0.677583 -1.45439 -0.732546 -0.675919 -0.458659 0.958568 -1.36316 1.28412 0.620337 2.25981 0.404364 -1.91947 4.33424 -2.07098 -0.841676 -0.839636 -0.0923961 -0.502845 -0.696759 1.16167 0.327025 0.288334 0.148872 -1.10705 0.577929 0.913343 -1.26433 -0.452413 -0.694344 2.07105 -2.11235 0.221952 0.977043 1.11158 2.19401 -0.923949 -1.01075 1.07982 0.101008 -0.614226 0.40539 0.127056 -2.63958 1.24809 0.193588 -1.14471 1.38504 -1.13943 -1.37557 -0.511281 0.67616 0.365733 0.599466 -0.393873 0.320446 2.80142 -0.617664 -1.18213 0.289291 0.695744 -0.739562 -1.57814 -0.155064 -0.695531 -0.0615797 -0.23944 -2.16464 1.00998 -0.683765 0.939404 0.064229 1.05564 -1.54788 -0.294647 -0.881579 -1.73858 1.75763 -1.30318 2.83807 0.900807 0.359198 -0.13222 2.45177 0.571656 -0.620289 -1.04934 -0.0598772 2.13259 -0.736667 -2.86511 -1.93715 -0.947438 0.799866 3.09585 0.528796 -0.0806914 1.00981 0.338767 1.24596 0.395262 -0.914479 -0.563345 -0.443904 1.72097 -1.34489 -1.57435 1.12736 0.799679 1.07048 -1.5695 -0.273951 -1.23275 -0.582828 -2.39866 -2.07606 0.40182 1.04594 1.70117 -1.846 -0.831186 0.0675586 -1.78176 -0.239498 -0.851811 -0.376095 -0.28553 -0.472482 -2.51906 2.72076 -3.87964 -1.16353 1.52132 0.453009 0.0427516 -0.391565 -4.13075 -1.90666 2.81959 -1.82033 0.37474 -0.660244 1.18395 2.56553 0.721426 1.38514 -0.501989 0.165561 -0.541263 -0.80545 -3.4868 2.27446 -0.0369252 -0.527893 1.44743 2.40285 0.896012 1.51359 -2.75875 0.0174699 -0.502302 1.2933 -1.22527 0.416239 -0.160665 0.524431 -0.361916 0.906628 1.4542 3.27576 -0.344858 -0.0813424 -0.425981 1.49471 -1.94528 -1.2339 0.231416 1.10354 -0.228631 -0.613986 1.70434 1.34678 -0.110056 -1.55161 0.271299 1.27036 -4.58598 -0.519509 0.615613 1.96423 0.0248919 -1.59008 1.46263 3.03899 -4.1198 -0.0118254 -2.00886 -1.59346 0.375968 -2.34993 -0.0998637 -0.344197 -1.20795 -1.39234 2.25641 0.852405 0.613605 1.96551 0.11485 0.624296 -1.82095 -0.247788 0.120681 -0.599056 2.20068 3.65293 -1.33409 2.06033 -1.97448 0.92057 1.23987 1.31583 -2.17995 -2.04012 0.576161 0.16228 0.987497 0.690184 1.37179 0.386788 -1.32844 3.42908 5.18927 -0.560126 -3.03902 -2.03268 -0.52729 -2.0911 -3.75359 -1.12693 -2.79121 -1.0698 2.12566 4.0801 1.47337 1.62989 -1.40712 0.063545 0.0259216 -0.662944 -2.72568 -2.19581 -2.75983 -0.980591 -2.45049 0.228499 -0.11588 0.839142 -0.855507 2.5083 -0.440964 -1.16678 0.506898 0.216118 -0.353069 -1.76279 0.119942 -0.387543 0.126186 -1.64635 -0.246637 3.87284 0.500616 0.994133 0.886876 0.407626 -2.27087 0.781364 -0.954085 -0.350513 0.298283 0.455805 0.61555 -0.302821 -2.42014 2.75234 -0.852433 -1.4686 0.79662 -0.185089 0.815264 -0.750241 0.132514 0.263932 -1.30075 2.04062 -1.47117 0.64686 1.05492 -0.646979 -1.81265 -0.951936 1.18402 -1.90671 -0.526023 0.333461 0.348147 2.4656 -1.79113 -0.355514 -2.0073 1.52538 -0.197886 0.211844 1.41268 -1.22134 -0.83464 -1.99798 -0.916407 2.7717 -0.773943 -2.70057 1.56807 -0.455989 3.11079 1.21368 -1.04049 -0.0326102 -0.485355 0.389022 0.696387 4.06256 -0.616609 -1.16598 1.82449 -1.25496 2.02677 -0.62649 -1.10807 -0.392965 -0.719159 -1.31539 2.07888 -0.667754 1.04912 -1.30609 -2.49653 -3.0727 -0.777232 -0.202659 0.983634 -0.283896 -0.815938 0.825406 1.58878 1.16202 0.482943 -0.0645702 0.752407 0.772565 -1.13663 -1.32575 0.634926 -0.766345 -2.51053 0.084012 -1.73245 -1.17307 -2.18817 -0.27796 0.0656262 -0.768333 -0.266292 1.67036 -0.12692 2.41869 -1.61811 -1.88117 1.28247 -0.857316 -0.755171 0.645821 1.14867 -0.850849 -0.405389 1.21789 1.82377 2.37741 -0.00128671 -1.77479 -0.00987009 0.567747 1.7208 0.0432592 -2.44855 1.69467 0.94055 -2.76673 -0.340352 -2.20564 -0.333888 -1.50081 2.36864 -1.11413 0.587797 0.516473 1.85423 -0.423343 -3.17874 0.555946 -1.42569 0.199913 -0.849853 0.492834 1.16658 0.244951 -1.53137 -0.0508772 -0.960126 0.116713 0.820294 -1.29563 1.41855 1.89435 -1.11707 0.280555 0.153294 3.40864 -1.00159 -0.781174 -1.24541 -0.839614 0.388003 -0.42066 -0.739232 1.38763 -0.490654 -0.568305 -3.69145 -0.330095 -1.91625 -1.67519 -0.0761678 0.546885 0.879466 1.6399 1.66162 0.656111 7.53904 1.3712 -0.080304 1.23414 0.698145 2.00218 -1.32605 -1.42605 0.356761 -0.793757 -0.872706 -0.912386 -0.165238 0.709226 -0.580391 -2.27568 -1.81693 2.12796 2.98632 -0.217498 -0.649668 -1.70539 4.60545 1.07487 -0.0233459 -1.46399 0.312712 -1.34715 0.504945 -0.143473 0.239113 1.54787 -0.197247 -0.421205 -0.573497 -0.731839 0.295183 -0.869348 -2.01088 -1.57151 -2.62242 -0.911247 -0.116421 0.101598 1.4043 0.13944 0.249549 2.9869 -0.230825 -1.30983 0.454606 1.05945 -1.57501 1.22028 0.403904 -1.10704 -1.47016 3.40481 -0.433923 1.41865 -0.744431 -0.904863 -2.18832 -3.03999 2.02743 -1.23305 0.987847 0.0826272 -1.41661 -1.65145 -2.38684 -0.688147 0.0874482 -0.00789137 -1.76677 0.362953 -0.883821 2.67987 0.185046 0.681651 0.831631 -2.8884 -0.594189 1.38394 -0.800666 -1.10698 1.14656 -0.353185 0.790193 0.219371 -2.22805 -0.166601 -4.2456 2.8708 0.845335 -0.07615 0.409176 0.156855 -0.0729981 0.463247 -0.199733 -0.26975 0.330262 -2.15442 0.910825 -0.796147 0.444707 0.393053 -0.941861 -3.04845 -0.309214 -3.60757 0.115221 -0.0596548 -2.42003 -0.700695 -0.574459 -0.212351 1.55359 0.474298 2.68377 -0.13806 -2.17546 -0.354334 -0.18695 3.09368 0.63569 0.372586 1.2949 0.195022 -0.265741 -1.36887 0.167583 2.96105 0.0554283 0.287626 0.570457 1.14237 -0.755149 -1.09836 1.5502 -0.0482382 -1.04874 2.23344 -0.259588 0.53456 0.0899308 -0.325584 -0.9937 -2.24066 -0.923888 -1.08276 -1.72293 4.47688 -1.01362 -1.61916 0.406386 -0.778125 0.518101 3.56013 0.653758 -2.14505 -0.06052 -1.70883 3.90269 0.00971514 3.82616 -0.743583 -0.163823 0.452382 0.114818 -2.81465 3.26235 0.299878 0.206961 0.609895 0.630252 -1.4769 0.304853 0.534595 2.78905 2.05164 0.323804 -1.78172 -0.857941 -2.11657 0.0852426 -0.0637111 0.343645 -1.51958 1.31573 1.85364 -3.15107 -3.09913 3.03234 0.489177 -1.79733 2.36432 1.14453 -1.20401 -0.623702 0.928391 -1.22617 -1.69927 2.83503 -1.11116 -0.185515 0.330552 -1.8657 0.367589 -0.418388 -1.29421 2.69438 2.7455 -0.585711 0.990495 0.562369 -0.349148 -0.330502 -0.908431 -1.35089 1.61966 -1.77344 -1.51505 -1.74495 0.308971 -0.734419 -0.0652166 -0.434657 -0.0491757 -0.595129 0.471335 -0.941948 3.76058 0.960617 1.73011 -1.66428 0.421196 -0.21425 -0.267724 -1.34928 0.93976 4.74642 1.46634 0.627218 -0.356614 -0.99021 -0.725943 0.118008 -0.468525 0.921911 0.280254 -0.81267 -1.1131 -1.2526 -1.28231 0.823487 -0.395921 -0.824218 0.443582 -0.504695 -0.797243 -0.930049 1.60951 0.457735 0.918881 -1.25308 -0.188987 -2.4715 -0.598727 -0.425469 -0.735762 -0.808944 -0.740675 -0.652959 0.548106 0.0735503 -0.503087 -0.870081 -1.53448 0.385784 -0.18222 -1.57828 -1.2163 -2.01172 -0.38996 0.146964 -0.74345 -1.24634 -0.695206 -1.01329 -0.406161 1.26303 0.116811 -0.341691 -0.403554 0.508613 -0.703324 -0.721338 0.270525 0.737909 0.841616 -0.483916 0.387093 0.451806 -1.57067 0.193232 0.0464306 -1.07246 1.11542 -0.0112677 -0.0464797 0.620864 -0.36284 0.399202 0.273685 0.00873243 -0.164853 1.23295 -0.331516 -0.340014 0.579352 -0.462554 2.2398 -0.554764 0.42579 -0.000192974 -0.403768 -0.361913 -0.534169 -0.227162 -0.370869 -0.293497 -0.34511 0.780711 -1.40939 0.236487 0.121901 -0.57844 0.298747 0.0906989 -0.581572 0.304429 -0.48771 -1.16328 -0.621453 -0.325416 -1.14365 -0.23092 0.801021 0.681456 -1.27096 -0.421285 -0.886211 -0.931563 -1.96873 0.999976 -0.400659 -1.5351 -0.249709 -0.70615 0.0745483 -0.911237 -1.32656 0.0124311 -1.98609 -0.183499 0.875522 1.19445 -1.48874 -0.64172 -3.01809 -1.16668 0.778793 -4.04805 -0.425088 0.991398 0.693743 -1.74993 1.48428 0.556278 0.919253 1.58595 -0.695178 -1.36878 -1.67181 -0.596275 1.73216 -0.917894 -0.462113 0.845704 -0.475391 -1.09284 -1.65613 -2.16434 -1.1452 0.981372 0.636801 2.15434 0.357123 -2.00246 -0.520642 1.11619 -0.402701 -1.45684 -1.59761 -0.893623 -0.124532 -3.32916 -0.12703 -2.20421 1.01053 -2.20181 -1.10915 0.307187 -1.41356 0.997841 1.34682 -1.15493 0.558566 1.03744 -1.08436 -0.307748 -0.153568 0.303869 -2.16492 0.0817231 0.610662 -1.37262 0.384476 0.466914 -0.621217 0.0517747 0.953861 -0.303521 -0.855555 -0.0191875 -0.496701 0.0105771 0.00863866 -0.602458 -0.709615 0.25592 -0.178936 -1.36979 -1.4382 0.168937 -0.206636 0.0545532 -1.85942 -0.533309 -0.543224 1.22206 6.0743 1.34015 -2.08021 0.449773 -0.308349 -0.545026 0.885072 1.60846 0.0238671 0.128545 0.762233 -1.03487 -0.921053 -1.47465 0.186732 1.34564 0.556554 -1.49278 -1.42952 0.234012 0.411115 0.187144 0.623185 0.0575105 -0.582951 -4.15324 -2.38921 4.03268 2.10831 0.407052 0.886871 0.646583 0.627618 -0.236674 2.23076 -0.468353 -0.0849013 -2.93464 0.763117 1.58565 -0.367676 0.317442 -0.750432 1.87816 -2.56174 -1.796 -0.952309 -1.39087 -0.716127 1.82925 -0.354571 1.10053 -0.0736007 1.05279 0.783263 -1.36793 0.2034 3.1984 0.789297 -0.879199 0.636184 1.24175 0.171634 -2.09261 -0.833711 -0.674329 0.862205 0.114418 -0.195603 -3.10298 -0.460016 -0.816945 -0.816147 3.62023 -0.336903 -0.308383 0.333591 -0.780658 1.78349 0.171961 -0.0358625 0.755713 0.1856 -0.496487 -1.27065 -0.0961581 1.75759 -1.04999 0.595298 0.517442 -0.225746 -1.11268 -0.300819 -0.333834 0.853624 1.11179 -1.27439 -0.488272 1.08244 -0.461477 2.11731 -2.31143 2.409 0.963887 3.31199 -1.43528 0.608004 0.179929 -0.0919079 -3.40998 -0.0407288 -0.9922 1.80854 -1.27341 0.794878 -0.710852 0.0188016 0.97803 1.37793 2.81726 0.863613 -0.189841 -0.0671669 -3.31946 1.75713 -4.8474 -0.409412 0.832282 -0.486572 -0.0431658 1.26374 -0.313147 2.28364 -0.0779778 -1.1733 -2.16148 0.811993 0.21825 -0.536147 2.32969 -0.164117 0.679467 -0.47027 0.409202 -3.50259 -0.464786 0.44661 1.18981 0.292903 2.11801 -0.306891 -0.826973 -1.03414 0.0626126 0.608557 -0.0907269 0.676958 -1.52103 -1.25831 -5.40876 0.363866 1.53229 -1.92599 1.14838 1.42751 0.240776 1.72314 -1.98127 -0.885894 1.3043 1.0262 1.28421 0.641734 -1.05323 -2.91401 -0.708125 -0.370676 2.89025 -0.481423 0.239957 0.090338 -0.260861 -3.33003 -0.184068 -0.181552 -0.309442 0.559722 -0.919587 -0.828694 0.666124 -0.0282506 0.27387 -0.291509 -0.165924 -0.859903 1.31718 -2.58432 2.61549 1.48695 0.175924 -2.1123 0.677563 -0.214977 -0.341726 0.0232278 -0.877676 -0.778165 -1.55023 1.2035 -1.03782 -1.02642 1.2419 1.40195 0.34068 -0.79245 0.663182 0.231626 0.207384 0.787117 0.514551 0.143056 1.21593 -0.11439 0.249136 -0.132817 1.76751 -1.04985 -1.38361 -0.213716 -1.56397 1.06242 1.46293 0.652858 1.01217 -2.09989 1.65645 0.0209433 -1.07739 0.545049 -1.9085 -0.874459 0.78287 -0.556566 -1.32029 -1.0028 -1.13989 0.225227 0.917219 -0.693289 0.0210349 -0.738604 0.500156 1.67413 -0.0984743 -0.705524 2.44854 0.033049 -0.787554 0.160595 -1.13761 1.66236 -1.02398 -0.577605 -0.540852 -1.45913 0.606604 0.342279 0.215225 -0.669311 -1.60785 1.83377 -0.996833 0.735358 -0.0588362 0.55819 0.366388 0.887838 -0.769711 0.0594742 0.872974 -0.147613 -2.33889 -0.229251 -1.05576 -0.740416 -1.1399 -0.853505 0.809936 -1.18058 0.554893 -1.09159 -0.172617 0.907506 0.146034 -1.01934 0.666917 -0.973337 0.821919 0.883292 -0.17764 -0.579323 -1.26744 -0.597009 -0.276217 -1.11629 0.776805 -1.73787 -1.73337 0.824837 -1.06917 -1.09343 0.615643 -0.394392 -1.24785 -1.17678 -1.04861 0.217239 -0.120111 -0.325156 -1.3718 1.33077 0.837432 -0.0336415 1.35389 -1.48926 -0.411718 -0.43086 -0.0576849 -1.304 -0.0260085 -1.49637 -0.546071 1.01745 0.497897 -0.963493 -2.7382 0.265878 -0.381856 0.602523 0.154208 -1.29451 -0.544724 0.805795 0.773584 -0.0208651 0.992009 0.617919 -0.242986 -1.75312 -0.918017 0.445696 0.348894 -0.209488 1.29967 -1.6537 -0.92975 -0.569237 0.315073 -1.62231 -1.96196 -1.52565 1.6081 -0.239785 -0.727056 -1.04298 -0.0193048 0.997034 1.67814 1.48997 -0.0917114 -1.40677 -0.243971 -0.381507 -1.46596 -0.874379 1.91323 0.36429 -0.361376 -0.754913 0.882134 -0.041439 1.80651 1.71442 0.872991 0.338185 0.287452 -0.396415 -0.243074 0.0605519 -1.04952 -1.38646 -0.493024 0.264181 1.5537 0.324772 0.0430298 0.694015 -0.484599 -1.01044 1.18225 3.29817 -1.9432 -0.0318737 0.187962 -0.478991 -0.198209 0.432343 1.15035 -1.52269 -0.978686 0.555027 -0.419208 0.713619 1.02257 0.715273 0.453738 0.0599683 -0.0355535 1.50622 1.43205 0.329307 0.4478 -0.414672 -0.326217 0.483321 -1.99698 -2.17838 0.203901 -0.242701 0.286814 -0.106368 0.163972 0.32144 -0.744854 0.296794 -0.271039 -0.759699 0.698437 -1.05987 0.685624 -0.310063 0.519315 -0.307009 0.5484 -0.800791 0.979981 -0.984358 -0.404812 0.66972 -3.20187 1.55941 0.163862 -0.00417581 0.00960105 0.0015701 -0.00100467 0.00231032 0.00250111 -0.00493092 0.0138216 0.00997316 0.0504395 0.0064441 0.0020908 0.00647519 -0.00522758 -0.00577166 0.00458056 -0.0181721 -0.00164117 -0.0245708 0.00553686 -0.000804739 0.0313966 -0.00711045 0.00492754 -0.000974026 -0.0195223 -0.0114789 0.000637856 0.00146691 -0.00579434 -0.00947405 -0.0114099 0.0132035 0.00365577 -0.00529394 -0.00851436 -0.0173477 -0.000398272 -0.00445378 0.0141666 -0.0181079 0.00381972 0.0338562 0.00113006 0.00405427 -0.0151353 -0.00142546 0.00507209 0.0120934 -0.0371167 -0.000995288 0.0090748 0.0249224 0.00280253 -0.015018 -0.0142523 -0.00365582 0.0111259 -0.0311557 -0.00617842 0.000932804 0.00403919 -0.000730749 0.0109406 -0.00143938 0.00249115 -0.00328511 0.00660359 0.00299805 0.0122976 0.00470226 0.0109841 -0.00145097 0.00486599 0.00987668 -0.000483721 -0.000529966 -0.00627974 0.000570553 9.29236e-005 -0.00918661 1.66898e-005 0.0055633 0.00108117 -0.0160376 0.0155257 -0.0049509 0.00087374 -0.00573721 -0.00580375 0.0118633 0.0178598 0.00618321 0.00196606 0.00155094 -0.00965952 -0.0012488 1.38948e-005 -0.000153777 0.00142976 0.00248757 0.0139756 -0.00797347 0.00807868 0.00144289 -0.000867104 0.00229928 0.00267721 -0.00621459 0.0131528 0.0103366 0.0482657 0.0070756 0.00261042 0.00723116 -0.00517171 -0.00511107 0.00431324 -0.0176161 -0.000717335 -0.0233402 0.00579714 -0.000674673 0.030449 -0.00612164 0.00457503 -0.00280939 -0.0186754 -0.0122822 0.000751645 0.00157889 -0.00493332 -0.00974433 -0.0121528 0.012198 0.00343687 -0.00597445 -0.00884299 -0.01452 -0.000385001 -0.00468476 0.0126988 -0.016863 0.00431142 0.0326096 0.0016962 0.00214167 -0.0142535 -0.000718081 0.00548489 0.0125127 -0.0348557 -0.00018651 0.00669103 0.0248806 0.00501148 -0.0287748 -0.0261503 0.00379589 0.0254063 -0.0503959 -0.00770242 0.00432823 0.00824166 -0.00150781 0.0196873 -0.00274142 0.0052525 -0.00657701 0.0158764 -0.00798281 0.0135269 0.00720339 0.0164745 -0.00234868 0.0118993 0.0143612 -0.000202118 -0.000722378 -0.00916537 0.000788945 0.000148066 -0.0208214 1.73959e-005 0.0117623 0.00185224 -0.0290697 0.0254749 -0.00694861 0.00208434 -0.0136793 -0.0114386 0.0148722 0.0323597 0.0107692 0.00289489 0.00563639 -0.0106934 -0.00178713 -0.00712275 0.000555634 0.000805696 -0.000800462 0.0236483 -0.0174447 0.0185543 0.00247079 -0.00167402 0.00339538 0.00352453 -0.00966732 0.0312793 0.0188904 0.0787014 0.0116743 0.0064109 0.00784231 -0.00831633 -0.0143161 0.00661758 -0.0391617 -0.000507087 -0.0412106 0.0077927 -0.00137907 0.0591137 -0.00614308 0.00687438 -0.00639086 -0.0248878 -0.0251142 0.00181312 0.00224943 -0.00713971 -0.0151357 -0.0183535 0.00927544 0.00461678 -0.009737 -0.0125163 -0.0234197 -0.000262045 -0.00790132 0.0184784 -0.0314383 0.00563089 0.0413835 -0.00305358 0.00183542 -0.0191245 -0.00182606 0.00447144 0.0205425 -0.0584007 -0.0023979 0.0148745 0.040418 0.00435845 -0.0255651 -0.0229413 0.00307353 0.0225078 -0.0445596 -0.00677164 0.00384532 0.0072276 -0.00134379 0.0174661 -0.00239874 0.00460452 -0.00571836 0.013881 -0.00659361 0.0127011 0.00647376 0.0146745 -0.00209248 0.00983676 0.012798 -0.000148529 -0.000639674 -0.00825689 0.000685863 0.00013185 -0.0179701 1.61812e-005 0.0102925 0.00165885 -0.0257831 0.0227106 -0.00659722 0.00187016 -0.0122402 -0.00989205 0.013008 0.0284667 0.00947763 0.00256318 0.00495757 -0.0095391 -0.0015435 -0.00623438 0.000392346 0.000931922 -0.000881326 0.0213333 -0.015561 0.0163232 0.00218056 -0.00146342 0.00304724 0.00311868 -0.00868162 0.0285244 0.0159997 0.0699751 0.0102969 0.00587035 0.00712826 -0.00749557 -0.0125724 0.00593834 -0.034801 -0.00082436 -0.037056 0.00704066 -0.0012299 0.0523087 -0.00540907 0.00599517 -0.00548403 -0.0223708 -0.0219833 0.00159652 0.00203121 -0.00646541 -0.0135204 -0.0165247 0.00865021 0.00418803 -0.00874841 -0.0114624 -0.0209191 -0.0002594 -0.00703238 0.0168011 -0.0282099 0.00511676 0.0368804 -0.00247898 0.00167516 -0.0172013 -0.0015741 0.00402272 0.0184361 -0.0520648 -0.00204038 0.013048 0.0363054 0.00395127 -0.0176436 -0.0178275 0.00134179 0.0162453 -0.0332651 -0.00693567 0.00280427 0.00551432 -0.000880699 0.0131971 -0.000899677 0.00341268 -0.00020526 0.0111289 -0.000166848 0.0107247 0.00470574 0.0118761 -0.0015083 0.0101261 0.00875623 -0.00118131 -0.000529976 -0.00604573 0.000587307 0.000104662 -0.0160957 1.4923e-005 0.00690514 0.00120864 -0.0196106 0.0170313 -0.00144956 0.00147509 -0.00834623 -0.00532462 0.0114992 0.0220555 0.00638891 0.00208715 0.00346533 -0.00598694 -0.00140719 -0.00144928 0.000601093 0.000684785 0.00310204 0.0134817 -0.00965947 0.0116094 0.00160257 -0.00112266 0.00228492 0.00253142 -0.00645423 0.0177234 0.014742 0.0558871 0.00805039 0.00276079 0.00727466 -0.00446274 -0.00762889 0.00450312 -0.0226246 0.000717792 -0.0248165 0.00520769 -0.000798201 0.0361909 -0.00451744 0.00530712 -0.00529469 -0.0172098 -0.0171571 0.00135086 0.00231221 -0.00588473 -0.0105207 -0.0121903 0.0104387 0.00283173 -0.00647368 -0.00699548 -0.0135285 -0.000207616 -0.00531796 0.0140057 -0.0198125 0.00421172 0.0304145 -0.00110942 0.000370365 -0.0115986 -0.00124867 0.00659049 0.0143326 -0.0378169 -0.00168312 0.00844148 0.0255448 0.00443408 -0.0187218 -0.0167788 0.00226969 0.0164824 -0.0325623 -0.00496002 0.00283939 0.0052953 -0.000984699 0.0127937 -0.00176303 0.0033706 -0.00420916 0.0101601 -0.00495265 0.00922013 0.00473878 0.0107418 -0.00153549 0.00720029 0.00934928 -9.61433e-005 -0.000459726 -0.00604546 0.0005014 9.63986e-005 -0.0131537 1.1819e-005 0.00753679 0.0012144 -0.0188597 0.0166251 -0.0048321 0.00137007 -0.00896628 -0.00724428 0.00948796 0.0208219 0.00693893 0.00187624 0.0036262 -0.00695901 -0.00112656 -0.00457245 0.000287106 0.000681335 -0.000657823 0.0156065 -0.0114232 0.0119706 0.00159584 -0.00107131 0.00222787 0.00227804 -0.00635557 0.0208826 0.0117087 0.0511345 0.00753589 0.00431525 0.00520546 -0.0054919 -0.00922955 0.00433173 -0.0255233 -0.000599264 -0.0271192 0.00515152 -0.000900638 0.0382957 -0.00392434 0.00438411 -0.0040243 -0.0163249 -0.0160921 0.00116938 0.00147648 -0.00470244 -0.00989093 -0.0120908 0.00624516 0.00306423 -0.00640656 -0.00839148 -0.0152765 -0.000186021 -0.00514478 0.0122224 -0.0206501 0.00372811 0.0269148 -0.00182831 0.00122323 -0.0125911 -0.00115305 0.0029165 0.0134861 -0.0380681 -0.00149493 0.00956006 0.0265535 0.00287533 -0.0292742 -0.0257049 -0.00755336 0.0177332 -0.0522232 -0.00921871 0.000929213 0.00671962 -0.000955964 0.0170958 -0.00122083 0.0048556 -0.0129802 0.0136474 0.00264457 0.0139165 0.00639127 0.0123232 -0.00304334 0.0207725 0.00794988 -0.000461454 -0.000382474 -0.0088928 0.000990454 0.000129937 -0.0183844 1.60757e-005 0.00971972 0.00137983 -0.0257542 0.0220318 -0.00186699 -0.000569876 -0.00775972 -0.0135875 0.0195159 0.0244592 0.012222 0.00194663 0.00355149 -0.021891 -0.00229012 -0.00565767 0.000535286 9.27471e-005 -0.000703949 0.0187023 -0.00452542 0.0161229 0.00246927 -0.00166303 0.00311182 0.00303139 -0.00729715 0.0142403 0.0184696 0.0725664 0.0109875 0.00331605 0.0113037 -0.00785801 -0.0120069 0.00663217 -0.0327267 -0.00157772 -0.0344158 0.00658121 -0.0012893 0.0479285 -0.014963 0.00680123 -0.000120842 -0.0247549 -0.0171243 0.00128491 0.001756 -0.00525142 -0.0127239 -0.014811 0.0161218 0.0045758 -0.00672535 -0.0111091 -0.0274719 -0.000567029 -0.00661502 0.016326 -0.0227258 0.00364673 0.0479678 0.000871294 0.00602634 -0.0204548 -0.00316785 0.00634539 0.0170765 -0.0534262 -0.00227927 0.0154076 0.033384 -7.5627e-005 -0.029449 -0.0253214 -0.0112444 0.0156409 -0.0523348 -0.0102736 -0.000155928 0.00643121 -0.000723229 0.0167418 -0.000587012 0.00454471 -0.0153759 0.0124029 0.00594467 0.0136035 0.0062208 0.0114024 -0.00312385 0.0242422 0.00564491 -0.000333146 -7.03581e-005 -0.00888446 0.00101275 0.0001225 -0.0171301 1.5571e-005 0.00886833 0.00122811 -0.0249465 0.0205973 3.53135e-005 -0.00123778 -0.00582435 -0.0136802 0.0213675 0.0218632 0.0126894 0.00169678 0.00297021 -0.0258384 -0.00248542 -0.00442905 0.000559562 -0.00036857 -4.32281e-005 0.0166669 0.000177906 0.0156144 0.00240765 -0.00165033 0.00302196 0.00295794 -0.00664461 0.00842367 0.0171336 0.0702487 0.0101914 0.00278088 0.0119626 -0.00779491 -0.0112658 0.00618875 -0.0301104 -0.00202621 -0.0319468 0.00615915 -0.00119404 0.0442546 -0.0170831 0.00640621 0.00200834 -0.0239639 -0.0139669 0.00120709 0.00164698 -0.00440447 -0.0117802 -0.0137684 0.0182354 0.00450969 -0.00595006 -0.0106429 -0.0280982 -0.000600715 -0.0059722 0.0156263 -0.0188861 0.00284226 0.0502663 0.00255311 0.00738049 -0.0209842 -0.003663 0.0069592 0.0161441 -0.051248 -0.00235412 0.0150058 0.0304198 -0.00134974 -0.0265479 -0.0208575 -0.00100151 0.0180438 -0.0443251 -0.00452058 0.00194966 0.00599175 -0.00172102 0.0131639 -0.00273087 0.00570194 -0.00647869 0.0144367 -0.000966216 0.0193701 0.00615456 0.0103153 -0.00242451 0.00408455 0.0110621 -0.00132977 -0.00178734 -0.0077518 0.00078037 0.000125212 -0.0129127 1.44376e-005 0.0105779 0.00163487 -0.0236164 0.0225903 -0.00877754 0.0026541 -0.0109144 -0.00912989 0.00977529 0.0245246 0.00839678 0.00153732 0.00522619 -0.00948855 -0.00128522 -0.00944829 -0.000174758 0.00291327 -0.00531194 0.0230755 -0.0142258 0.0162783 0.0021995 -0.00140684 0.00278339 0.00239166 -0.00784083 0.0388079 0.0120396 0.0678713 0.0104087 0.00412432 0.0086629 -0.00790518 -0.00951751 0.00771182 -0.0339717 -0.00331148 -0.0379297 0.00652519 -0.001408 0.0453385 -0.00981201 0.00593768 -0.00346248 -0.024963 -0.0207422 0.000820567 0.00162133 -0.006345 -0.0110874 -0.0146643 0.00968969 0.0045481 -0.00682529 -0.0133066 -0.0262729 -0.000692988 -0.00747246 0.0210495 -0.0381412 0.00562181 0.0355882 -0.003307 0.0029318 -0.019296 -0.00133233 0.00242197 0.0165855 -0.0519433 -0.00172395 0.0163003 0.0401125 0.0013546 -0.0427399 -0.0284005 -0.00322189 0.0247343 -0.0546612 -0.00637881 0.00601883 0.00694759 -0.00164032 0.0189638 0.000501497 0.0064433 -0.0136956 0.0196364 -0.00325705 0.018007 0.00755009 0.00989919 -0.0040321 0.0193661 0.00258706 0.000587739 -0.00182113 -0.011622 0.000687727 0.000146956 -0.021686 2.30074e-005 0.0120508 0.00182623 -0.0308103 0.0263667 -0.00616272 0.000477181 -0.0142426 -0.0127233 0.0104093 0.0244996 0.0124295 0.000693207 0.00763081 -0.01615 -0.00130292 -0.0160407 7.99031e-005 0.00211055 -0.01057 0.0269019 -0.011454 0.019422 0.00280395 -0.00159582 0.00350347 0.00121056 -0.00762458 0.0471878 0.011345 0.0803803 0.0128515 0.00924002 0.00807441 -0.0104618 -0.0198337 0.00913047 -0.0536246 -0.0082765 -0.0513077 0.00622976 -0.0021184 0.0611051 -0.0157158 0.00615457 0.00258431 -0.0234319 -0.0227299 0.00151549 0.00226228 -0.00715318 -0.013284 -0.0183409 0.00914907 0.00500807 -0.00736042 -0.0157344 -0.0350411 -0.000711497 -0.00800609 0.0221209 -0.0372062 0.00356208 0.0378507 -0.00390228 0.00508159 -0.0216774 -0.0040399 0.00110271 0.022022 -0.0651928 -0.00358213 0.0213357 0.0474969 -0.0083461 -0.0254929 -0.0205835 -0.00481972 0.0174036 -0.0401328 -0.00520915 0.00352091 0.00556526 -0.000845674 0.0153024 -0.000139512 0.00371809 -0.00903522 0.0111514 0.000285236 0.0105542 0.00598721 0.00976028 -0.00275629 0.0145922 0.00709662 0.000334915 9.18385e-005 -0.00863244 0.000702396 0.000112524 -0.0163469 1.59681e-005 0.0077052 0.00143454 -0.0220148 0.0182918 -0.00227594 -0.00030763 -0.00772147 -0.00994036 0.0125712 0.0207678 0.00915384 0.00134329 0.00298625 -0.0125028 -0.00146388 -0.00699161 0.000616816 0.000972989 -0.00153453 0.0172311 -0.00950601 0.0133179 0.00191389 -0.0011978 0.00273819 0.00206859 -0.00628998 0.0216189 0.0139364 0.0605583 0.010604 0.00457078 0.00675071 -0.00774933 -0.0124109 0.00613484 -0.0332891 -0.0014471 -0.030986 0.00559606 -0.00110987 0.0431175 -0.0119461 0.00486593 -0.00260902 -0.0177925 -0.01586 0.00153771 0.00129981 -0.00375819 -0.010867 -0.0134334 0.0095259 0.00354963 -0.00575399 -0.0102739 -0.0207969 -0.000307003 -0.0055012 0.0136342 -0.0199967 0.00250967 0.033264 5.83619e-005 0.00183233 -0.0138034 -0.00260934 0.00370355 0.0158589 -0.0451992 -0.00203875 0.0111618 0.0322061 -0.000540311 -0.0213067 -0.019477 0.0048908 0.0178575 -0.037312 -0.00661039 0.00198772 0.00594342 -0.00122162 0.0130231 -0.0029943 0.00454775 -0.00590224 0.0130401 -0.0101868 0.00880772 0.00442788 0.0114325 -0.00149534 0.00956008 0.00944622 -0.000480182 -0.00145138 -0.00534603 0.000610978 9.92618e-005 -0.0151612 7.04694e-006 0.00965356 0.00113274 -0.0201466 0.0185672 -0.00542357 0.00169493 -0.0102034 -0.00986665 0.0108698 0.0235568 0.00842061 0.0021481 0.00511785 -0.00928763 -0.00136551 -0.00592016 0.000322512 -0.000389094 -0.00221878 0.016246 -0.0107054 0.0146569 0.00193472 -0.00134402 0.00217219 0.00253821 -0.00653751 0.0190897 0.0153089 0.0539964 0.00742738 0.00385531 0.00630569 -0.00504769 -0.00984691 0.00423769 -0.026974 -0.000339205 -0.0289047 0.00489763 -0.00109105 0.0422839 -0.00316804 0.00562164 -0.00321577 -0.0181289 -0.0191419 0.000876443 0.00152709 -0.00527995 -0.0101652 -0.0120062 0.00484807 0.00318422 -0.00671552 -0.00811964 -0.0184966 -0.000238141 -0.00590505 0.0121665 -0.0239281 0.00420721 0.0294517 -0.00410426 0.00333572 -0.015139 -0.00129891 0.00240891 0.0129929 -0.0411643 -0.00172376 0.013686 0.0259858 0.00188885 -0.0253695 -0.0243566 -0.00512722 0.0200194 -0.0484945 -0.00142208 0.00466779 0.00663081 -0.000977655 0.0170457 -0.000349315 0.0033463 -0.0113673 0.0130044 0.00821096 0.0140982 0.00638508 0.0106514 -0.00350475 0.0161084 0.00976994 -0.000251278 0.00253261 -0.00853511 0.000750063 0.000140995 -0.0196911 2.3821e-005 0.00878778 0.00192285 -0.0275656 0.0212944 -0.00180836 -0.00104007 -0.00840963 -0.0125345 0.014391 0.023597 0.00998837 0.00108904 0.00136546 -0.0149829 -0.00180394 -0.0106901 0.000904467 0.00250063 -0.00447875 0.0224291 -0.012874 0.0134157 0.00212268 -0.00151198 0.0030398 0.0019509 -0.0082559 0.0283465 0.0135928 0.0761371 0.0127605 0.00541174 0.00553746 -0.00744251 -0.0169539 0.00837828 -0.0396547 -0.00208533 -0.0396426 0.0072426 -0.00127409 0.0509408 -0.0146374 0.00395911 -0.00410009 -0.022651 -0.0151435 0.00240311 0.00194844 -0.00580682 -0.0141787 -0.0146881 0.0143742 0.00475167 -0.00689636 -0.0109318 -0.0231644 -0.000423253 -0.00620125 0.0169296 -0.0246451 0.00280635 0.0394871 0.00138183 -0.000225589 -0.0147594 -0.00307212 0.00404843 0.0208146 -0.056809 -0.00339581 0.00998116 0.0412659 0.000414958 -0.0185102 -0.0174262 0.0230274 0.0297118 -0.0237883 -0.00337641 0.00818138 0.00761237 -0.00168854 0.0146764 -0.00499728 0.00494097 0.00637705 0.0170657 -0.0301816 0.00238449 0.00427441 0.012912 -0.000536777 0.00101379 0.0124678 -3.64598e-005 -0.00207613 -0.00408532 0.000237558 9.65995e-005 -0.0215924 -6.13742e-006 0.0113992 0.00192122 -0.0208055 0.0203519 -0.0065415 0.00552993 -0.016418 -0.00507282 -2.58105e-005 0.0294792 0.00560877 0.00247023 0.00735143 0.0106847 -0.000463066 -0.00900268 0.00122462 -0.000824682 -0.00332199 0.0158103 -0.0264388 0.0196799 0.00156775 -0.00123684 0.00161199 0.00182996 -0.00895596 0.0380109 0.0184147 0.049227 0.0075152 0.00736972 0.000527076 -0.00396503 -0.0133119 0.00295694 -0.0352333 0.00363424 -0.0289416 0.00317528 -0.000972029 0.0497479 0.00858678 0.00378902 -0.0136133 -0.00815257 -0.0300706 0.00206293 0.00221541 -0.00387455 -0.00957515 -0.011753 -0.0102655 0.000773052 -0.00877138 -0.00582783 -0.00686665 0.000503504 -0.00681323 0.00857477 -0.0289149 0.00453753 0.00755478 -0.0119193 -0.00498252 -0.00506287 -2.54747e-005 -0.000570871 0.0146013 -0.0355439 -0.00284488 0.0123716 0.0263982 0.00300635 -0.0224603 -0.0182542 0.0156475 0.0257558 -0.0338308 -0.00778345 0.00228858 0.00597403 -0.00175054 0.0123835 -0.00675901 0.00592966 -0.00124334 0.0162186 -0.0285783 0.00788236 0.0040937 0.011724 -0.00020784 0.00179677 0.0116794 -0.000626254 -0.00517537 -0.00460339 0.000499119 8.85037e-005 -0.0148548 -8.31477e-006 0.012498 0.00101496 -0.0185592 0.0197877 -0.0108675 0.0041648 -0.0139117 -0.0108469 0.0062847 0.0291066 0.00833889 0.00254243 0.00886676 -0.000640699 -0.000771336 -0.00888365 0.000116044 -0.00252973 -0.00564677 0.0165879 -0.0178251 0.0192447 0.00199546 -0.0012945 0.00194564 0.00269464 -0.00635463 0.0276228 0.0169631 0.0480402 0.00652095 0.00570026 0.00574946 -0.00475265 -0.00891863 0.00310475 -0.0300723 0.00011967 -0.0293542 0.00324783 -0.00120722 0.0485255 0.00478689 0.00581707 -0.0059934 -0.0146785 -0.0271591 0.000452559 0.00183749 -0.0058599 -0.00820857 -0.0122945 -0.00812219 0.00187747 -0.00723444 -0.00781135 -0.0178681 -0.000167462 -0.00713293 0.0131526 -0.0288295 0.00559936 0.0176167 -0.0116698 0.00294487 -0.0133259 -0.000583474 -0.00159449 0.0111618 -0.0390986 -0.000911743 0.0175714 0.0236547 0.0013442 -0.0252894 -0.022888 0.00711444 0.0249574 -0.0417382 -0.00655767 0.00335845 0.00716796 -0.00137289 0.0156952 -0.00458292 0.00544698 -0.00499326 0.0159159 -0.0153168 0.00851961 0.00555025 0.0116695 -0.00172373 0.0122748 0.0110121 -0.00054265 -0.00214755 -0.00719781 0.000764697 0.000113044 -0.0200375 6.55781e-007 0.0112921 0.00132327 -0.0234729 0.0206469 -0.00448082 0.0020243 -0.0117507 -0.0120695 0.0115627 0.029293 0.0100955 0.00217089 0.00612528 -0.00637012 -0.00147329 -0.00905512 0.000984982 -0.00132702 -0.00242411 0.0172002 -0.0146785 0.0180504 0.00215149 -0.00150869 0.00253591 0.0027599 -0.0065825 0.0249795 0.02158 0.0615792 0.010254 0.00485434 0.00753559 -0.00678665 -0.0117755 0.00530666 -0.0349949 0.00169575 -0.0304062 0.00443794 -0.00115979 0.0513631 -0.00645342 0.00581331 -0.00666454 -0.0170592 -0.0249454 0.0015196 0.00166035 -0.00485219 -0.0101563 -0.0132629 0.000299599 0.00242164 -0.00701799 -0.00845928 -0.0207207 -0.000153473 -0.00715482 0.0136745 -0.0253028 0.00421577 0.0285189 -0.00677238 0.00164942 -0.0124313 -0.00200974 0.0021699 0.0145878 -0.045457 -0.00248059 0.0159038 0.0291264 0.000862586 -0.01654 -0.0179641 -0.000483599 0.0137522 -0.0341483 -0.00410334 0.00146195 0.00540394 -0.000640036 0.0121861 -0.000468141 0.00274427 -0.00296372 0.00980156 0.0106483 0.0134843 0.00470644 0.00907765 -0.001269 0.0132431 0.00727299 -0.0012348 0.000478113 -0.00602827 0.000493866 0.000102576 -0.0143064 1.1282e-005 0.00631098 0.00111386 -0.0205668 0.0142113 0.000941939 0.00109766 -0.00684375 -0.00562651 0.012918 0.019199 0.00595323 0.00139414 0.00344834 -0.00969944 -0.00161746 -0.00426771 0.00083173 0.000315542 0.00288443 0.0130221 -0.00594489 0.00895347 0.0013308 -0.00105733 0.00238624 0.00225338 -0.00545778 0.0226107 0.0110974 0.0556304 0.00729674 0.00297326 0.0052755 -0.00467669 -0.00640609 0.00601617 -0.0202057 -0.000298673 -0.023255 0.00418107 -0.000676725 0.0344362 -0.0117105 0.00347024 -0.00364544 -0.017332 -0.0125454 0.00175927 0.00214884 -0.00566266 -0.00953983 -0.0104856 0.01374 0.0026575 -0.00547856 -0.00639848 -0.0168928 -0.000306051 -0.00453754 0.0171267 -0.0165793 0.00412991 0.0335317 0.000478383 0.0015053 -0.0110578 -0.00172163 0.00660474 0.0136131 -0.0368066 -0.0028327 0.00739523 0.0257312 0.00271729 -0.0169483 -0.0224306 -0.0137003 0.00806853 -0.0481056 -0.00741672 -0.00374148 0.00684149 -0.000127472 0.0148624 0.00156743 0.00201576 -0.00951813 0.00790588 0.0341263 0.0202466 0.00543888 0.0110018 -0.00166512 0.0248953 0.00717488 -0.00205524 0.00295429 -0.00672313 0.000802089 0.000123395 -0.0135352 2.36527e-005 0.00495992 0.00108524 -0.0247964 0.0145246 0.00529052 -0.000809732 -0.00379423 -0.00650652 0.0240824 0.0174024 0.00798668 0.00171704 0.000513499 -0.0259934 -0.00285645 0.00227012 0.000724338 0.00104033 0.00931823 0.0127387 0.00823726 0.00562703 0.001542 -0.00144736 0.00306924 0.00349806 -0.00628997 0.00860427 0.00897067 0.0721851 0.00712494 -0.000553749 0.0117886 -0.00493692 -0.00322115 0.00725296 -0.0116576 -0.00184374 -0.0227837 0.00645351 -0.000541473 0.029714 -0.0217475 0.00409745 0.00267585 -0.0270124 -0.00579028 0.00192636 0.00235733 -0.00739394 -0.0122984 -0.0110028 0.0350756 0.00437133 -0.0056613 -0.0068682 -0.0239706 -0.000745091 -0.00404321 0.0230047 -0.0125384 0.00436379 0.058145 0.00872391 0.00558783 -0.0183607 -0.00257042 0.0129652 0.0151633 -0.0439417 -0.00403539 0.00629473 0.0259361 0.00559815 -0.040547 -0.0196044 -0.0603002 -0.00717989 -0.042667 -0.0163223 0.000562514 0.00179283 0.00188206 0.0152304 0.0173559 0.000374661 -0.0336734 -0.00168801 0.0587252 0.0227412 0.00618198 -6.15508e-005 -0.00819019 0.0544881 -0.0265097 0.000930623 0.00950164 -0.0117185 0.00113497 9.84885e-005 -0.010357 4.78041e-005 -0.00616596 0.00136607 -0.0193205 0.00761305 0.0219812 -0.0129099 0.00926347 0.000617362 0.0280695 -0.0112564 0.0108178 -0.00234073 -0.00844079 -0.0524513 -0.00252923 0.00709313 0.00027114 0.00685692 0.00317147 0.00343208 0.0377667 0.00368795 0.00168259 -0.000926572 0.00263544 -0.000624787 -0.00190406 -0.0266401 -0.00629289 0.0652456 0.0105227 -0.00434085 0.0191781 -0.0105413 -0.0117189 0.00814037 -0.0258152 -0.0136784 -0.0222986 0.00636033 -0.000789205 0.00444831 -0.0472252 0.0022855 0.022534 -0.0145604 0.0135292 0.00144723 -0.000663976 0.00305383 -0.0101691 -0.00771737 0.0498867 0.00530021 0.00193693 -0.0128223 -0.0303603 -0.00100029 0.000695762 0.0147862 0.0103447 -0.00945541 0.0626504 0.02775 0.00963807 -0.0241499 -0.00976999 0.0178786 0.0164073 -0.0418252 -0.00366226 0.00817025 0.0264756 -0.018743 -0.0187218 -0.0167788 0.00226969 0.0164824 -0.0325623 -0.00496002 0.00283939 0.0052953 -0.000984699 0.0127937 -0.00176303 0.0033706 -0.00420916 0.0101601 -0.00495265 0.00922013 0.00473878 0.0107418 -0.00153549 0.00720029 0.00934928 -9.61433e-005 -0.000459726 -0.00604546 0.0005014 9.63986e-005 -0.0131537 1.1819e-005 0.00753679 0.0012144 -0.0188597 0.0166251 -0.0048321 0.00137007 -0.00896628 -0.00724428 0.00948796 0.0208219 0.00693893 0.00187624 0.0036262 -0.00695901 -0.00112656 -0.00457245 0.000287106 0.000681335 -0.000657823 0.0156065 -0.0114232 0.0119706 0.00159584 -0.00107131 0.00222787 0.00227804 -0.00635557 0.0208826 0.0117087 0.0511345 0.00753589 0.00431525 0.00520546 -0.0054919 -0.00922955 0.00433173 -0.0255233 -0.000599264 -0.0271192 0.00515152 -0.000900638 0.0382957 -0.00392434 0.00438411 -0.0040243 -0.0163249 -0.0160921 0.00116938 0.00147648 -0.00470244 -0.00989093 -0.0120908 0.00624516 0.00306423 -0.00640656 -0.00839148 -0.0152765 -0.000186021 -0.00514478 0.0122224 -0.0206501 0.00372811 0.0269148 -0.00182831 0.00122323 -0.0125911 -0.00115305 0.0029165 0.0134861 -0.0380681 -0.00149493 0.00956006 0.0265535 0.00287533 -0.0360209 -0.0322823 0.00436735 0.031712 -0.0626496 -0.00954292 0.00546294 0.0101886 -0.00189459 0.0246154 -0.00339203 0.006485 -0.00809832 0.0195483 -0.00952845 0.0177394 0.00911739 0.0206666 -0.00295427 0.0138532 0.0179877 -0.000184955 -0.000884413 -0.0116315 0.000964691 0.000185472 -0.0253072 2.27392e-005 0.0145008 0.00233652 -0.0362858 0.0319866 -0.00929725 0.00263617 -0.0172505 -0.0139378 0.0182551 0.0400612 0.0133507 0.00360991 0.00697668 -0.013389 -0.00216751 -0.00879745 0.000552377 0.00131096 -0.00126573 0.0300267 -0.0219785 0.0230314 0.00307042 -0.00206121 0.00428645 0.00438292 -0.0122282 0.0401784 0.0225272 0.0983835 0.0144992 0.00830251 0.0100152 -0.0105664 -0.0177575 0.0083342 -0.0491065 -0.00115302 -0.0521774 0.00991143 -0.00173282 0.0736804 -0.00755043 0.00843503 -0.00774261 -0.0314094 -0.0309607 0.00224999 0.00284075 -0.00904757 -0.0190303 -0.0232624 0.0120158 0.0058956 -0.0123265 -0.0161452 -0.0293919 -0.000357897 -0.00989853 0.0235157 -0.0397308 0.00717268 0.0517841 -0.00351738 0.00235344 -0.0242252 -0.00221849 0.00561102 0.0259471 -0.0732427 -0.00287626 0.0183941 0.0510892 0.00553216 -0.0187218 -0.0167788 0.00226969 0.0164824 -0.0325623 -0.00496002 0.00283939 0.0052953 -0.000984699 0.0127937 -0.00176303 0.0033706 -0.00420916 0.0101601 -0.00495265 0.00922013 0.00473878 0.0107418 -0.00153549 0.00720029 0.00934928 -9.61433e-005 -0.000459726 -0.00604546 0.0005014 9.63986e-005 -0.0131537 1.1819e-005 0.00753679 0.0012144 -0.0188597 0.0166251 -0.0048321 0.00137007 -0.00896628 -0.00724428 0.00948796 0.0208219 0.00693893 0.00187624 0.0036262 -0.00695901 -0.00112656 -0.00457245 0.000287106 0.000681335 -0.000657823 0.0156065 -0.0114232 0.0119706 0.00159584 -0.00107131 0.00222787 0.00227804 -0.00635557 0.0208826 0.0117087 0.0511345 0.00753589 0.00431525 0.00520546 -0.0054919 -0.00922955 0.00433173 -0.0255233 -0.000599264 -0.0271192 0.00515152 -0.000900638 0.0382957 -0.00392434 0.00438411 -0.0040243 -0.0163249 -0.0160921 0.00116938 0.00147648 -0.00470244 -0.00989093 -0.0120908 0.00624516 0.00306423 -0.00640656 -0.00839148 -0.0152765 -0.000186021 -0.00514478 0.0122224 -0.0206501 0.00372811 0.0269148 -0.00182831 0.00122323 -0.0125911 -0.00115305 0.0029165 0.0134861 -0.0380681 -0.00149493 0.00956006 0.0265535 0.00287533 -0.000299552 -0.000268466 3.63201e-005 0.000263718 -0.000520994 -7.93542e-005 4.54298e-005 8.47243e-005 -1.57554e-005 0.000204695 -2.82078e-005 5.39294e-005 -6.73468e-005 0.000162562 -7.92372e-005 0.000147522 7.58203e-005 0.00017186 -2.45676e-005 0.000115202 0.000149588 -1.53821e-006 -7.35487e-006 -9.67273e-005 8.02229e-006 1.54239e-006 -0.000210451 1.89102e-007 0.000120589 1.94304e-005 -0.000301753 0.000266003 -7.73142e-005 2.19217e-005 -0.000143457 -0.000115907 0.000151805 0.000333149 0.000111023 3.002e-005 5.80147e-005 -0.000111343 -1.80252e-005 -7.31578e-005 4.59351e-006 1.09018e-005 -1.05227e-005 0.000249703 -0.000182774 0.000191532 2.55337e-005 -1.71406e-005 3.56465e-005 3.64487e-005 -0.000101688 0.000334126 0.000187339 0.000818153 0.000120576 6.90438e-005 8.32867e-005 -8.78709e-005 -0.000147674 6.93073e-005 -0.000408369 -9.58892e-006 -0.00043391 8.24242e-005 -1.44104e-005 0.000612726 -6.27866e-005 7.01453e-005 -6.43859e-005 -0.000261199 -0.000257471 1.87105e-005 2.36238e-005 -7.52384e-005 -0.000158254 -0.000193451 9.99223e-005 4.90282e-005 -0.000102505 -0.000134263 -0.000244425 -2.97635e-006 -8.23161e-005 0.000195557 -0.0003304 5.96498e-005 0.000430636 -2.92521e-005 1.95713e-005 -0.000201455 -1.84489e-005 4.66645e-005 0.000215778 -0.000609086 -2.39189e-005 0.000152966 0.000424858 4.60043e-005 -0.000153971 0.00212266 0.00192162 -0.00366204 -0.000648408 -0.00663335 -0.00145602 -0.000309631 0.000138714 -0.000964681 -0.000271048 0.000507917 -0.000674504 -0.00277069 -0.00163638 0.0012052 -2.7245e-005 0.00187848 0.000380922 0.000639763 -0.00212616 -1.18646e-005 -0.00107564 -8.69607e-005 -2.35018e-005 -2.87141e-006 0.00722814 -3.43602e-006 -5.24238e-005 -0.000343901 0.00192863 -8.39666e-005 -0.000779769 4.0227e-006 -0.00358385 0.00141448 0.00404804 -0.00360221 0.000717318 0.000343637 -0.00171098 -0.0055682 -8.87112e-005 0.00258678 -0.000497253 -0.000994166 0.00420783 -0.00279925 0.00416546 -0.000700473 -9.63401e-005 -1.64619e-005 -0.00011299 0.00010308 0.00031033 -0.00565419 -0.00325157 -0.00701446 -0.00364186 0.000593824 0.00038105 0.000372012 0.00666364 -0.000415504 0.0102914 -0.00107161 0.00217588 0.000359122 -3.9941e-005 -0.00639201 -0.0022611 -0.00141262 0.00190425 -0.00251524 0.00273155 -0.00120196 6.92827e-005 -0.000162832 0.00106997 0.00108158 0.00201364 0.000254319 -0.000130544 -0.00062004 -0.000163745 -9.14566e-006 -0.000329318 -0.000192014 0.00134687 0.000823777 0.0049826 -2.23248e-005 0.00578309 -0.00862776 -0.000153839 5.72849e-005 -0.00355032 0.0029308 0.000194617 0.00509206 -0.00168921 -0.00222975 0 0 0 0 0 0 0 0 0 0 0 0 0 0 0 0 0 0 0 0 0 0 0 0 0 0 0 0 0 0 0 0 0 0 0 0 0 0 0 0 0 0 0 0 0 0 0 0 0 0 0 0 0 0 0 0 0 0 0 0 0 0 0 0 0 0 0 0 0 0 0 0 0 0 0 0 0 0 0 0 0 0 0 0 0 0 0 0 0 0 0 0 0 0 0 0 0 0 0 0 0 0 